{"learner":{"attributes":{"scikit_learn":"{\"_estimator_type\": \"classifier\"}"},"feature_names":[],"feature_types":[],"gradient_booster":{"model":{"cats":{"enc":[],"feature_segments":[],"sorted_idx":[]},"gbtree_model_param":{"num_parallel_tree":"1","num_trees":"600"},"iteration_indptr":[0,3,6,9,12,15,18,21,24,27,30,33,36,39,42,45,48,51,54,57,60,63,66,69,72,75,78,81,84,87,90,93,96,99,102,105,108,111,114,117,120,123,126,129,132,135,138,141,144,147,150,153,156,159,162,165,168,171,174,177,180,183,186,189,192,195,198,201,204,207,210,213,216,219,222,225,228,231,234,237,240,243,246,249,252,255,258,261,264,267,270,273,276,279,282,285,288,291,294,297,300,303,306,309,312,315,318,321,324,327,330,333,336,339,342,345,348,351,354,357,360,363,366,369,372,375,378,381,384,387,390,393,396,399,402,405,408,411,414,417,420,423,426,429,432,435,438,441,444,447,450,453,456,459,462,465,468,471,474,477,480,483,486,489,492,495,498,501,504,507,510,513,516,519,522,525,528,531,534,537,540,543,546,549,552,555,558,561,564,567,570,573,576,579,582,585,588,591,594,597,600],"tree_info":[0,1,2,0,1,2,0,1,2,0,1,2,0,1,2,0,1,2,0,1,2,0,1,2,0,1,2,0,1,2,0,1,2,0,1,2,0,1,2,0,1,2,0,1,2,0,1,2,0,1,2,0,1,2,0,1,2,0,1,2,0,1,2,0,1,2,0,1,2,0,1,2,0,1,2,0,1,2,0,1,2,0,1,2,0,1,2,0,1,2,0,1,2,0,1,2,0,1,2,0,1,2,0,1,2,0,1,2,0,1,2,0,1,2,0,1,2,0,1,2,0,1,2,0,1,2,0,1,2,0,1,2,0,1,2,0,1,2,0,1,2,0,1,2,0,1,2,0,1,2,0,1,2,0,1,2,0,1,2,0,1,2,0,1,2,0,1,2,0,1,2,0,1,2,0,1,2,0,1,2,0,1,2,0,1,2,0,1,2,0,1,2,0,1,2,0,1,2,0,1,2,0,1,2,0,1,2,0,1,2,0,1,2,0,1,2,0,1,2,0,1,2,0,1,2,0,1,2,0,1,2,0,1,2,0,1,2,0,1,2,0,1,2,0,1,2,0,1,2,0,1,2,0,1,2,0,1,2,0,1,2,0,1,2,0,1,2,0,1,2,0,1,2,0,1,2,0,1,2,0,1,2,0,1,2,0,1,2,0,1,2,0,1,2,0,1,2,0,1,2,0,1,2,0,1,2,0,1,2,0,1,2,0,1,2,0,1,2,0,1,2,0,1,2,0,1,2,0,1,2,0,1,2,0,1,2,0,1,2,0,1,2,0,1,2,0,1,2,0,1,2,0,1,2,0,1,2,0,1,2,0,1,2,0,1,2,0,1,2,0,1,2,0,1,2,0,1,2,0,1,2,0,1,2,0,1,2,0,1,2,0,1,2,0,1,2,0,1,2,0,1,2,0,1,2,0,1,2,0,1,2,0,1,2,0,1,2,0,1,2,0,1,2,0,1,2,0,1,2,0,1,2,0,1,2,0,1,2,0,1,2,0,1,2,0,1,2,0,1,2,0,1,2,0,1,2,0,1,2,0,1,2,0,1,2,0,1,2,0,1,2,0,1,2,0,1,2,0,1,2,0,1,2,0,1,2,0,1,2,0,1,2,0,1,2,0,1,2,0,1,2,0,1,2,0,1,2,0,1,2,0,1,2,0,1,2,0,1,2,0,1,2,0,1,2,0,1,2,0,1,2,0,1,2,0,1,2,0,1,2,0,1,2,0,1,2,0,1,2,0,1,2,0,1,2,0,1,2,0,1,2,0,1,2,0,1,2,0,1,2,0,1,2,0,1,2,0,1,2,0,1,2,0,1,2,0,1,2,0,1,2,0,1,2,0,1,2,0,1,2],"trees":[{"base_weights":[1.6731681E-2,-6.8803774E-3,8.537735E-2,-1.537708E-2,1.7872192E-2,9.479118E-2,-1.2144307E-2,-8.84217E-3,-1.7603297E-2,1.043805E-2,-5.6533674E-3,-1.29051E-4,-1.5448752E-2],"categories":[],"categories_nodes":[],"categories_segments":[],"categories_sizes":[],"default_left":[0,0,0,0,0,0,0,0,0,0,0,0,0],"id":0,"left_children":[1,3,5,7,-1,9,-1,11,-1,-1,-1,-1,-1],"loss_changes":[1.2655088E0,8.0129105E-1,3.8568962E-1,4.700169E-1,0E0,3.102324E-1,0E0,4.941317E-1,0E0,0E0,0E0,0E0,0E0],"parents":[2147483647,0,0,1,1,2,2,3,3,5,5,7,7],"right_children":[2,4,6,8,-1,10,-1,12,-1,-1,-1,-1,-1],"split_conditions":[1E0,1E0,1E0,1E0,1.7872192E-2,1E0,-1.2144307E-2,1E0,-1.7603297E-2,1.043805E-2,-5.6533674E-3,-1.29051E-4,-1.5448752E-2],"split_indices":[5,3,4,2,0,3,0,4,0,0,0,0,0],"split_type":[0,0,0,0,0,0,0,0,0,0,0,0,0],"sum_hessian":[7.551842E2,5.571554E2,1.9802882E2,5.362189E2,2.0936523E1,1.9223798E2,5.7908554E0,5.192643E2,1.6954546E1,1.8418095E2,8.057012E0,4.978907E2,2.13736E1],"tree_param":{"num_deleted":"0","num_feature":"6","num_nodes":"13","size_leaf_vector":"1"}},{"base_weights":[-1.607988E-3,3.1554952E-2,-6.151056E-2,-1.4816564E-1,4.9468175E-2,-1.10492915E-1,-0E0,-1.7198382E-2,-0E0,7.407715E-2,-4.9091183E-2,-1.1497813E-1,-0E0,3.755733E-2,-6.1005685E-2,8.185531E-3,-1.7797042E-2,4.965629E-3,-2.2530183E-2,-1.0277567E-2,-2.797985E-2,8.4509095E-3,-1.4957803E-2,-1.0995521E-2,1.2785988E-2],"categories":[],"categories_nodes":[],"categories_segments":[],"categories_sizes":[],"default_left":[0,0,0,0,0,0,0,0,0,0,0,0,0,0,0,0,0,0,0,0,0,0,0,0,0],"id":1,"left_children":[1,3,5,7,9,11,13,-1,-1,15,17,19,-1,21,23,-1,-1,-1,-1,-1,-1,-1,-1,-1,-1],"loss_changes":[1.5083507E0,1.4985389E0,8.205147E-1,6.303847E-2,1.0795265E0,1.0667777E-1,2.832098E-1,0E0,0E0,6.6304994E-1,1.5630906E0,7.829356E-2,0E0,6.4873195E-1,4.4197428E-1,0E0,0E0,0E0,0E0,0E0,0E0,0E0,0E0,0E0,0E0],"parents":[2147483647,0,0,1,1,2,2,3,3,4,4,5,5,6,6,9,9,10,10,11,11,13,13,14,14],"right_children":[2,4,6,8,10,12,14,-1,-1,16,18,20,-1,22,24,-1,-1,-1,-1,-1,-1,-1,-1,-1,-1],"split_conditions":[5.1937604E-1,-1.4263648E0,1.2976724E0,1E0,1E0,1E0,1.6868205E0,-1.7198382E-2,-0E0,1E0,-2.5892025E-1,1E0,-0E0,1E0,1E0,8.185531E-3,-1.7797042E-2,4.965629E-3,-2.2530183E-2,-1.0277567E-2,-2.797985E-2,8.4509095E-3,-1.4957803E-2,-1.0995521E-2,1.2785988E-2],"split_indices":[0,0,0,1,1,2,0,0,0,2,0,4,0,1,1,0,0,0,0,0,0,0,0,0,0],"split_type":[0,0,0,0,0,0,0,0,0,0,0,0,0,0,0,0,0,0,0,0,0,0,0,0,0],"sum_hessian":[7.497667E2,4.7752707E2,2.7223962E2,4.0093323E1,4.3743375E2,1.5088615E2,1.2135347E2,3.1630623E1,8.462698E0,3.5429294E2,8.314082E1,1.4733678E2,3.5493727E0,7.5098366E1,4.6255104E1,3.462662E2,8.026739E0,5.1923733E1,3.1217089E1,1.4151677E2,5.8200135E0,6.2609962E1,1.2488403E1,3.9168694E1,7.0864096E0],"tree_param":{"num_deleted":"0","num_feature":"6","num_nodes":"25","size_leaf_vector":"1"}},{"base_weights":[-1.183343E-2,-3.1696253E-2,4.4438025E-1,-6.5599576E-2,3.9722085E-2,5.060175E-1,-0E0,4.996778E-2,-1.010453E-1,2.8475951E-2,2.1443275E-1,-0E0,5.3178996E-2,1.7095754E-3,7.814166E-2,-1.6090985E-2,-4.878119E-3,5.9825317E-3,-1.9577255E-3,6.7589777E-3,4.324091E-2],"categories":[],"categories_nodes":[],"categories_segments":[],"categories_sizes":[],"default_left":[0,0,0,0,0,0,0,0,0,0,0,0,0,0,0,0,0,0,0,0,0],"id":2,"left_children":[1,3,5,7,9,11,-1,13,15,17,19,-1,-1,-1,-1,-1,-1,-1,-1,-1,-1],"loss_changes":[6.534785E0,1.7428439E0,9.655843E-1,2.0331383E0,3.1552914E-1,3.4230232E-1,0E0,2.2828147E0,1.0692172E0,3.4625685E-1,6.634745E-2,0E0,0E0,0E0,0E0,0E0,0E0,0E0,0E0,0E0,0E0],"parents":[2147483647,0,0,1,1,2,2,3,3,4,4,5,5,7,7,8,8,9,9,10,10],"right_children":[2,4,6,8,10,12,-1,14,16,18,20,-1,-1,-1,-1,-1,-1,-1,-1,-1,-1],"split_conditions":[1E0,7.1395016E-1,1.6868205E0,-1.0372165E0,1E0,-1.4263648E0,-0E0,1E0,-2.5892025E-1,1.4922465E0,1E0,-0E0,5.3178996E-2,1.7095754E-3,7.814166E-2,-1.6090985E-2,-4.878119E-3,5.9825317E-3,-1.9577255E-3,6.7589777E-3,4.324091E-2],"split_indices":[4,0,0,0,3,0,0,3,0,0,1,0,0,0,0,0,0,0,0,0,0],"split_type":[0,0,0,0,0,0,0,0,0,0,0,0,0,0,0,0,0,0,0,0,0],"sum_hessian":[7.413604E2,7.1237134E2,2.8989023E1,4.8785974E2,2.2451163E2,2.5899166E1,3.0898583E0,1.111031E2,3.7675662E2,2.1471526E2,9.796369E0,1.3336769E0,2.4565489E1,1.079583E2,3.1448042E0,1.7018137E2,2.0657527E2,1.3609111E2,7.8624146E1,8.006546E0,1.7898222E0],"tree_param":{"num_deleted":"0","num_feature":"6","num_nodes":"21","size_leaf_vector":"1"}},{"base_weights":[1.2088722E-2,2.4122277E-2,-2.7886444E-1,-7.3760785E-2,5.1629916E-2,-0E0,-2.9276782E-1,-4.786169E-2,-1.6149321E-1,1.9148951E-2,1.8215713E-1,-3.1781185E-1,-0E0,3.380858E-3,-8.1429435E-3,-1.6956987E-2,-0E0,4.301811E-3,-6.6878446E-3,3.0211417E-2,5.486617E-3,-1.2571784E-2,-3.9350796E-2],"categories":[],"categories_nodes":[],"categories_segments":[],"categories_sizes":[],"default_left":[0,0,0,0,0,0,0,0,0,0,0,0,0,0,0,0,0,0,0,0,0,0,0],"id":3,"left_children":[1,3,5,7,9,-1,11,13,15,17,19,21,-1,-1,-1,-1,-1,-1,-1,-1,-1,-1,-1],"loss_changes":[2.5542455E0,1.9750373E0,1.14622116E-1,2.4644649E-1,2.351832E0,0E0,1.07645035E-1,3.7680957E-1,4.5712054E-2,9.5202726E-1,1.5188336E0,4.5028687E-2,0E0,0E0,0E0,0E0,0E0,0E0,0E0,0E0,0E0,0E0,0E0],"parents":[2147483647,0,0,1,1,2,2,3,3,4,4,6,6,7,7,8,8,9,9,10,10,11,11],"right_children":[2,4,6,8,10,-1,12,14,16,18,20,22,-1,-1,-1,-1,-1,-1,-1,-1,-1,-1,-1],"split_conditions":[1E0,-8.426425E-1,-1.4263648E0,1E0,1E0,-0E0,1.6868205E0,-1.4263648E0,1E0,1.2976724E0,3.2480198E-1,3.2480198E-1,-0E0,3.380858E-3,-8.1429435E-3,-1.6956987E-2,-0E0,4.301811E-3,-6.6878446E-3,3.0211417E-2,5.486617E-3,-1.2571784E-2,-3.9350796E-2],"split_indices":[4,0,0,1,1,0,0,0,2,0,0,0,0,0,0,0,0,0,0,0,0,0,0],"split_type":[0,0,0,0,0,0,0,0,0,0,0,0,0,0,0,0,0,0,0,0,0,0,0],"sum_hessian":[7.62992E2,7.3521954E2,2.7772427E1,1.569327E2,5.7828687E2,1.3306056E0,2.6441822E1,1.2675778E2,3.0174906E1,4.6704312E2,1.11243744E2,2.3353065E1,3.0887568E0,3.25824E1,9.4175385E1,2.8865656E1,1.3092498E0,3.7054404E2,9.6499084E1,5.45424E1,5.6701344E1,9.220469E0,1.4132596E1],"tree_param":{"num_deleted":"0","num_feature":"6","num_nodes":"23","size_leaf_vector":"1"}},{"base_weights":[-1.028894E-2,5.3835303E-2,-5.544413E-2,-1.7750923E-1,9.173177E-2,-3.0899035E-2,-1.5627737E-1,-2.0896792E-2,-0E0,1.4932065E-1,4.119679E-2,4.038548E-2,-6.1926737E-2,-3.0230423E-2,-6.649431E-2,1.06107425E-2,3.3377945E-2,-4.6230602E-4,1.5563818E-2,-5.927372E-3,9.946996E-3,-1.01428125E-2,-1.991917E-3,-9.900278E-3,9.298613E-3],"categories":[],"categories_nodes":[],"categories_segments":[],"categories_sizes":[],"default_left":[0,0,0,0,0,0,0,0,0,0,0,0,0,0,0,0,0,0,0,0,0,0,0,0,0],"id":4,"left_children":[1,3,5,7,9,11,13,-1,-1,15,17,19,21,-1,23,-1,-1,-1,-1,-1,-1,-1,-1,-1,-1],"loss_changes":[2.1880078E0,2.6704388E0,1.0096414E0,1.391362E-1,6.7518306E-1,8.21229E-1,8.890989E-1,0E0,0E0,6.988869E-1,8.529924E-1,6.5309566E-1,3.683995E-1,0E0,2.9765055E-1,0E0,0E0,0E0,0E0,0E0,0E0,0E0,0E0,0E0,0E0],"parents":[2147483647,0,0,1,1,2,2,3,3,4,4,5,5,6,6,9,9,10,10,11,11,12,12,14,14],"right_children":[2,4,6,8,10,12,14,-1,-1,16,18,20,22,-1,24,-1,-1,-1,-1,-1,-1,-1,-1,-1,-1],"split_conditions":[-2.5892025E-1,-1.4263648E0,1E0,1E0,-8.426425E-1,3.2480198E-1,3.2480198E-1,-2.0896792E-2,-0E0,1E0,-4.5349434E-1,-6.434618E-2,1.1030983E0,-3.0230423E-2,1.6868205E0,1.06107425E-2,3.3377945E-2,-4.6230602E-4,1.5563818E-2,-5.927372E-3,9.946996E-3,-1.01428125E-2,-1.991917E-3,-9.900278E-3,9.298613E-3],"split_indices":[0,0,1,1,0,0,0,0,0,1,0,0,0,0,0,0,0,0,0,0,0,0,0,0,0],"split_type":[0,0,0,0,0,0,0,0,0,0,0,0,0,0,0,0,0,0,0,0,0,0,0,0,0],"sum_hessian":[7.533384E2,3.0663095E2,4.4670743E2,4.07836E1,2.6584735E2,3.6429492E2,8.2412506E1,3.2336338E1,8.447262E0,1.1871391E2,1.4713344E2,1.0549938E2,2.5879553E2,2.8356422E1,5.405608E1,9.965384E1,1.9060072E1,1.02632256E2,4.4501175E1,3.6116E1,6.9383385E1,1.2651311E2,1.3228242E2,4.7822372E1,6.23371E0],"tree_param":{"num_deleted":"0","num_feature":"6","num_nodes":"25","size_leaf_vector":"1"}},{"base_weights":[-1.3418186E-2,-3.084697E-2,7.277163E-2,3.7097838E-2,-4.7649365E-2,1.6834706E-2,2.1874069E-1,-3.3177074E-2,2.300173E-1,-1.9406093E-2,-1.2169154E-1,6.1928134E-2,-4.1904855E-3,2.6015056E-2,5.968734E-2,-5.7282234E-3,3.9248314E-2,4.9867675E-2,2.0425175E-3,-6.8427767E-3,5.8977836E-4,-1.3762893E-2,1.9328346E-2,3.4652923E-3,2.2543361E-2,-8.8169734E-4,4.261958E-2],"categories":[],"categories_nodes":[],"categories_segments":[],"categories_sizes":[],"default_left":[0,0,0,0,0,0,0,0,0,0,0,0,0,0,0,0,0,0,0,0,0,0,0,0,0,0,0],"id":5,"left_children":[1,3,5,7,9,11,13,15,17,19,21,23,-1,-1,25,-1,-1,-1,-1,-1,-1,-1,-1,-1,-1,-1,-1],"loss_changes":[1.1268587E0,7.375343E-1,8.889059E-1,1.7536117E0,1.0131273E0,2.58998E-1,3.349161E-2,7.583382E-1,1.6714481E0,5.055356E-1,6.931379E-1,1.20100334E-1,0E0,0E0,4.721826E-1,0E0,0E0,0E0,0E0,0E0,0E0,0E0,0E0,0E0,0E0,0E0,0E0],"parents":[2147483647,0,0,1,1,2,2,3,3,4,4,5,5,6,6,7,7,8,8,9,9,10,10,11,11,14,14],"right_children":[2,4,6,8,10,12,14,16,18,20,22,24,-1,-1,26,-1,-1,-1,-1,-1,-1,-1,-1,-1,-1,-1,-1],"split_conditions":[1.2976724E0,-1.0372165E0,1E0,1E0,1E0,1.6868205E0,1.6868205E0,1E0,-1.4263648E0,-2.5892025E-1,1E0,1E0,-4.1904855E-3,2.6015056E-2,1E0,-5.7282234E-3,3.9248314E-2,4.9867675E-2,2.0425175E-3,-6.8427767E-3,5.8977836E-4,-1.3762893E-2,1.9328346E-2,3.4652923E-3,2.2543361E-2,-8.8169734E-4,4.261958E-2],"split_indices":[0,0,5,5,5,0,0,3,0,0,4,3,0,0,3,0,0,0,0,0,0,0,0,0,0,0,0],"split_type":[0,0,0,0,0,0,0,0,0,0,0,0,0,0,0,0,0,0,0,0,0,0,0,0,0,0,0],"sum_hessian":[7.6160736E2,6.3886346E2,1.22743866E2,1.2052482E2,5.183387E2,9.2021095E1,3.0722767E1,8.7050964E1,3.347385E1,3.8101578E2,1.3732288E2,5.6842148E1,3.517895E1,2.1377796E1,9.344972E0,8.431621E1,2.7347574E0,1.3019864E1,2.0453985E1,1.3586247E2,2.451533E2,1.3275604E2,4.5668306E0,5.2375114E1,4.4670315E0,7.5462213E0,1.7987505E0],"tree_param":{"num_deleted":"0","num_feature":"6","num_nodes":"27","size_leaf_vector":"1"}},{"base_weights":[-9.404695E-3,6.7251828E-3,-9.942399E-2,-2.3758752E-2,1.02814615E-1,-2.2676097E-1,1.3828239E-1,-4.5986313E-2,6.177581E-2,2.9261246E-2,3.872645E-2,-2.6207099E-2,-3.534631E-3,1.6755031E-1,-2.077849E-2,8.937694E-3,-6.0129943E-3,-1.8151304E-2,1.8365745E-2,5.359582E-3,-1.0764942E-2,1.8018788E-2,-0E0],"categories":[],"categories_nodes":[],"categories_segments":[],"categories_sizes":[],"default_left":[0,0,0,0,0,0,0,0,0,0,0,0,0,0,0,0,0,0,0,0,0,0,0],"id":6,"left_children":[1,3,5,7,9,11,13,15,17,-1,19,-1,-1,21,-1,-1,-1,-1,-1,-1,-1,-1,-1],"loss_changes":[1.1460896E0,1.9112073E0,3.7016125E0,9.100325E-1,1.7427893E0,3.8108063E-1,4.3036574E-1,7.321497E-1,2.8533235E0,0E0,2.4234015E-1,0E0,0E0,1.6333938E-2,0E0,0E0,0E0,0E0,0E0,0E0,0E0,0E0,0E0],"parents":[2147483647,0,0,1,1,2,2,3,3,4,4,5,5,6,6,7,7,8,8,10,10,13,13],"right_children":[2,4,6,8,10,12,14,16,18,-1,20,-1,-1,22,-1,-1,-1,-1,-1,-1,-1,-1,-1],"split_conditions":[1.2976724E0,5.1937604E-1,1.6868205E0,1E0,7.1395016E-1,1E0,1E0,-1.4263648E0,-8.426425E-1,2.9261246E-2,1E0,-2.6207099E-2,-3.534631E-3,1E0,-2.077849E-2,8.937694E-3,-6.0129943E-3,-1.8151304E-2,1.8365745E-2,5.359582E-3,-1.0764942E-2,1.8018788E-2,-0E0],"split_indices":[0,0,0,1,0,1,3,0,0,0,4,0,0,1,0,0,0,0,0,0,0,0,0],"split_type":[0,0,0,0,0,0,0,0,0,0,0,0,0,0,0,0,0,0,0,0,0,0,0],"sum_hessian":[7.559363E2,6.3714246E2,1.18793816E2,4.803142E2,1.5682823E2,7.875501E1,4.0038807E1,3.8624902E2,9.406519E1,3.6718483E1,1.2010976E2,6.397278E1,1.4782232E1,3.872442E1,1.314387E0,3.269234E1,3.5355667E2,2.9863277E1,6.420191E1,1.1270999E2,7.3997602E0,3.385073E1,4.873689E0],"tree_param":{"num_deleted":"0","num_feature":"6","num_nodes":"23","size_leaf_vector":"1"}},{"base_weights":[-9.026814E-3,1.6458545E-2,-8.190572E-2,1.1322607E-1,-8.395018E-3,-1.2424646E-2,-2.001478E-1,-3.0111693E-2,1.6084929E-1,2.09104E-2,-1.3406377E-1,-1.8621428E-1,1.0808169E-1,-4.2506676E-2,-8.80997E-2,-4.6517705E-3,-0E0,1.2083123E-2,2.152473E-2,1.3412406E-2,7.235698E-4,-4.7707587E-2,-9.108815E-3,-2.1985782E-2,-6.0577184E-4,1.3106629E-2,-0E0,-0E0,-1.3221252E-2],"categories":[],"categories_nodes":[],"categories_segments":[],"categories_sizes":[],"default_left":[0,0,0,0,0,0,0,0,0,0,0,0,0,0,0,0,0,0,0,0,0,0,0,0,0,0,0,0,0],"id":7,"left_children":[1,3,5,7,9,11,13,15,17,19,21,23,25,-1,27,-1,-1,-1,-1,-1,-1,-1,-1,-1,-1,-1,-1,-1,-1],"loss_changes":[1.4497643E0,1.4013294E0,1.5568014E0,8.805883E-1,1.6899806E0,2.811623E0,1.5282335E0,2.4393864E-2,5.977869E-3,4.8054332E-1,9.5623064E-1,2.2441602E-1,1.5587592E-1,0E0,1.4103425E-1,0E0,0E0,0E0,0E0,0E0,0E0,0E0,0E0,0E0,0E0,0E0,0E0,0E0,0E0],"parents":[2147483647,0,0,1,1,2,2,3,3,4,4,5,5,6,6,7,7,8,8,9,9,10,10,11,11,12,12,14,14],"right_children":[2,4,6,8,10,12,14,16,18,20,22,24,26,-1,28,-1,-1,-1,-1,-1,-1,-1,-1,-1,-1,-1,-1,-1,-1],"split_conditions":[1E0,-8.426425E-1,5.1937604E-1,-1.4263648E0,1E0,-6.480684E-1,9.085242E-1,1E0,-1.0372165E0,-6.480684E-1,-6.480684E-1,1E0,1E0,-4.2506676E-2,1.2976724E0,-4.6517705E-3,-0E0,1.2083123E-2,2.152473E-2,1.3412406E-2,7.235698E-4,-4.7707587E-2,-9.108815E-3,-2.1985782E-2,-6.0577184E-4,1.3106629E-2,-0E0,-0E0,-1.3221252E-2],"split_indices":[5,0,0,0,1,0,0,1,0,0,0,1,1,0,0,0,0,0,0,0,0,0,0,0,0,0,0,0,0],"split_type":[0,0,0,0,0,0,0,0,0,0,0,0,0,0,0,0,0,0,0,0,0,0,0,0,0,0,0,0,0],"sum_hessian":[7.612131E2,5.5947955E2,2.017335E2,1.177155E2,4.4176407E2,1.3042639E2,7.1307106E1,2.6830097E1,9.088541E1,3.5567667E2,8.6087395E1,5.488182E1,7.554458E1,2.1298243E1,5.000886E1,2.193446E1,4.895638E0,5.951545E1,3.1369957E1,3.344139E1,3.2223526E2,7.164886E0,7.8922516E1,4.3721302E1,1.1160518E1,6.012586E1,1.54187155E1,2.029159E1,2.9717272E1],"tree_param":{"num_deleted":"0","num_feature":"6","num_nodes":"29","size_leaf_vector":"1"}},{"base_weights":[-2.1056723E-2,-2.836602E-2,1.9242217E-1,-6.4451486E-2,1.8457845E-2,5.8398623E-2,3.7304413E-2,-6.284462E-3,-8.615136E-2,1.643201E-2,-6.0173864E-3,-2.4141291E-2,4.2608127E-2,-2.2850407E-3,5.1927576E-3,-9.485878E-3,1.4488305E-2,-4.7045634E-3,1.9355019E-3,-2.1131936E-2,1.7716818E-2],"categories":[],"categories_nodes":[],"categories_segments":[],"categories_sizes":[],"default_left":[0,0,0,0,0,0,0,0,0,0,0,0,0,0,0,0,0,0,0,0,0],"id":8,"left_children":[1,3,5,7,9,-1,11,13,15,-1,17,19,-1,-1,-1,-1,-1,-1,-1,-1,-1],"loss_changes":[1.1025121E0,1.2639881E0,1.0572424E0,4.8419273E-1,1.2015074E0,0E0,6.5010273E-1,1.03940316E-1,5.922861E-1,0E0,2.9270282E-1,6.460691E-1,0E0,0E0,0E0,0E0,0E0,0E0,0E0,0E0,0E0],"parents":[2147483647,0,0,1,1,2,2,3,3,4,4,6,6,7,7,8,8,10,10,11,11],"right_children":[2,4,6,8,10,-1,12,14,16,-1,18,20,-1,-1,-1,-1,-1,-1,-1,-1,-1],"split_conditions":[1E0,3.2480198E-1,-1.0372165E0,-1.0372165E0,5.1937604E-1,5.8398623E-2,1E0,1E0,1E0,1.643201E-2,1.1030983E0,7.1395016E-1,4.2608127E-2,-2.2850407E-3,5.1927576E-3,-9.485878E-3,1.4488305E-2,-4.7045634E-3,1.9355019E-3,-2.1131936E-2,1.7716818E-2],"split_indices":[2,0,0,0,0,0,1,1,4,0,0,0,0,0,0,0,0,0,0,0,0],"split_type":[0,0,0,0,0,0,0,0,0,0,0,0,0,0,0,0,0,0,0,0,0],"sum_hessian":[7.5463727E2,7.327577E2,2.1879593E1,4.1965024E2,3.1310745E2,4.5091033E0,1.7370491E1,1.2062998E2,2.9902023E2,4.710374E1,2.6600372E2,1.4699131E1,2.6713598E0,1.0106556E2,1.956442E1,2.9081342E2,8.206824E0,1.08846535E2,1.5715717E2,8.878185E0,5.8209453E0],"tree_param":{"num_deleted":"0","num_feature":"6","num_nodes":"21","size_leaf_vector":"1"}},{"base_weights":[1.1642129E-2,-5.5976678E-2,3.1295598E-2,-4.1099902E-2,-4.6048738E-2,4.8269324E-2,-3.030162E-2,1.2551055E-3,-5.9717495E-2,1.3548082E-2,1.4225978E-1,-1.2745406E-1,1.2677504E-1,1.0451051E-2,-1.9392567E-2,-1.0992254E-2,4.710102E-3,3.788503E-3,-5.401514E-3,6.4934487E-3,2.8285077E-2,-9.602434E-3,-4.7321405E-2,1.714151E-2,-3.5237946E-2],"categories":[],"categories_nodes":[],"categories_segments":[],"categories_sizes":[],"default_left":[0,0,0,0,0,0,0,0,0,0,0,0,0,0,0,0,0,0,0,0,0,0,0,0,0],"id":9,"left_children":[1,3,5,7,-1,9,11,13,15,17,19,21,23,-1,-1,-1,-1,-1,-1,-1,-1,-1,-1,-1,-1],"loss_changes":[9.865268E-1,7.147727E-1,6.2491786E-1,1.555396E-1,0E0,1.4458263E0,1.8662701E0,8.1514186E-1,6.770381E-1,5.6351876E-1,1.135356E0,5.1060176E-1,9.2936707E-1,0E0,0E0,0E0,0E0,0E0,0E0,0E0,0E0,0E0,0E0,0E0,0E0],"parents":[2147483647,0,0,1,1,2,2,3,3,5,5,6,6,7,7,8,8,9,9,10,10,11,11,12,12],"right_children":[2,4,6,8,-1,10,12,14,16,18,20,22,24,-1,-1,-1,-1,-1,-1,-1,-1,-1,-1,-1,-1],"split_conditions":[-8.426425E-1,1E0,1.2976724E0,-1.4263648E0,-4.6048738E-2,1E0,1.6868205E0,1E0,1E0,7.1395016E-1,5.1937604E-1,1E0,1E0,1.0451051E-2,-1.9392567E-2,-1.0992254E-2,4.710102E-3,3.788503E-3,-5.401514E-3,6.4934487E-3,2.8285077E-2,-9.602434E-3,-4.7321405E-2,1.714151E-2,-3.5237946E-2],"split_indices":[0,3,0,0,0,5,0,5,5,0,0,4,3,0,0,0,0,0,0,0,0,0,0,0,0],"split_type":[0,0,0,0,0,0,0,0,0,0,0,0,0,0,0,0,0,0,0,0,0,0,0,0,0],"sum_hessian":[7.4930664E2,1.6259633E2,5.867103E2,1.5908334E2,3.5129764E0,4.6649625E2,1.2021406E2,4.065943E1,1.1842392E2,3.4537445E2,1.21121796E2,7.635808E1,4.385598E1,2.8570965E1,1.2088468E1,8.3724785E1,3.4699135E1,2.5967624E2,8.5698235E1,8.138061E1,3.9741188E1,7.249231E1,3.8657706E0,4.1660477E1,2.1955051E0],"tree_param":{"num_deleted":"0","num_feature":"6","num_nodes":"25","size_leaf_vector":"1"}},{"base_weights":[-2.1327524E-3,2.1716155E-2,-6.912225E-2,1.8750831E-1,-1.7481662E-2,-1.9341731E-1,-2.9139876E-2,1.4262795E-1,3.284483E-1,1.1287179E-3,-1.07290946E-1,-2.4716305E-2,-0E0,7.0026696E-2,-1.5507632E-1,1.541E-2,-4.686821E-3,4.135473E-3,5.254651E-2,2.1161211E-3,-1.6819412E-2,-4.073762E-2,-7.2379434E-3,2.9917096E-3,-0E0,1.044873E-2,-8.6563424E-4,-2.8186351E-2,-4.805853E-3],"categories":[],"categories_nodes":[],"categories_segments":[],"categories_sizes":[],"default_left":[0,0,0,0,0,0,0,0,0,0,0,0,0,0,0,0,0,0,0,0,0,0,0,0,0,0,0,0,0],"id":10,"left_children":[1,3,5,7,9,11,13,15,17,19,21,-1,23,25,27,-1,-1,-1,-1,-1,-1,-1,-1,-1,-1,-1,-1,-1,-1],"loss_changes":[1.2292672E0,3.6693778E0,8.949486E-1,4.000969E-1,7.9555225E-1,5.757786E-1,2.0300422E0,2.48433E-1,9.732232E-1,1.1657033E0,5.777763E-1,0E0,3.6666954E-3,2.847634E-1,8.01937E-1,0E0,0E0,0E0,0E0,0E0,0E0,0E0,0E0,0E0,0E0,0E0,0E0,0E0,0E0],"parents":[2147483647,0,0,1,1,2,2,3,3,4,4,5,5,6,6,7,7,8,8,9,9,10,10,12,12,13,13,14,14],"right_children":[2,4,6,8,10,12,14,16,18,20,22,-1,24,26,28,-1,-1,-1,-1,-1,-1,-1,-1,-1,-1,-1,-1,-1,-1],"split_conditions":[1E0,-8.426425E-1,-8.426425E-1,1E0,1E0,1E0,5.1937604E-1,1E0,-1.2317907E0,1.6868205E0,-6.480684E-1,-2.4716305E-2,-1.2317907E0,1E0,1.1030983E0,1.541E-2,-4.686821E-3,4.135473E-3,5.254651E-2,2.1161211E-3,-1.6819412E-2,-4.073762E-2,-7.2379434E-3,2.9917096E-3,-0E0,1.044873E-2,-8.6563424E-4,-2.8186351E-2,-4.805853E-3],"split_indices":[5,0,0,1,1,1,0,3,0,0,0,0,0,1,0,0,0,0,0,0,0,0,0,0,0,0,0,0,0],"split_type":[0,0,0,0,0,0,0,0,0,0,0,0,0,0,0,0,0,0,0,0,0,0,0,0,0,0,0,0,0],"sum_hessian":[7.5265753E2,5.5004736E2,2.026102E2,1.0689471E2,4.4315265E2,4.5334293E1,1.5727591E2,8.529371E1,2.1601E1,3.632911E2,7.986151E1,3.6799515E1,8.534777E0,8.601697E1,7.125894E1,8.30889E1,2.2048118E0,1.03161E1,1.12849E1,3.282804E2,3.5010715E1,5.718328E0,7.414319E1,3.0967171E0,5.43806E0,6.400954E1,2.2007425E1,2.973046E1,4.152848E1],"tree_param":{"num_deleted":"0","num_feature":"6","num_nodes":"29","size_leaf_vector":"1"}},{"base_weights":[-1.3448871E-3,-1.3328035E-2,2.5225323E-1,-2.1083904E-2,1.929172E-1,1.1654744E-2,6.148208E-2,-2.6217705E-2,8.936033E-2,2.925394E-2,-0E0,-2.9329455E-3,-1.484359E-3,3.2436424E-3,1.788016E-2],"categories":[],"categories_nodes":[],"categories_segments":[],"categories_sizes":[],"default_left":[0,0,0,0,0,0,0,0,0,0,0,0,0,0,0],"id":11,"left_children":[1,3,5,7,9,-1,-1,11,13,-1,-1,-1,-1,-1,-1],"loss_changes":[2.1663384E0,1.0698975E0,1.1399105E0,3.660602E-1,5.4330844E-1,0E0,0E0,1.2374222E-3,2.5373265E-2,0E0,0E0,0E0,0E0,0E0,0E0],"parents":[2147483647,0,0,1,1,2,2,3,3,4,4,7,7,8,8],"right_children":[2,4,6,8,10,-1,-1,12,14,-1,-1,-1,-1,-1,-1],"split_conditions":[1E0,1E0,1E0,1E0,1E0,1.1654744E-2,6.148208E-2,1E0,1E0,2.925394E-2,-0E0,-2.9329455E-3,-1.484359E-3,3.2436424E-3,1.788016E-2],"split_indices":[4,2,5,3,5,0,0,5,5,0,0,0,0,0,0],"split_type":[0,0,0,0,0,0,0,0,0,0,0,0,0,0,0],"sum_hessian":[7.500732E2,7.190169E2,3.105629E1,6.961598E2,2.2857073E1,2.456306E1,6.493229E0,6.702923E2,2.5867542E1,1.5723649E1,7.1334233E0,4.9054898E2,1.7974329E2,2.0056025E1,5.8115172E0],"tree_param":{"num_deleted":"0","num_feature":"6","num_nodes":"15","size_leaf_vector":"1"}},{"base_weights":[8.638576E-3,1.7078392E-2,-1.9098668E-1,1.86229E-3,-1.2108764E-2,-1.117486E-2,-3.1785395E-2,-3.6125965E-3,-0E0],"categories":[],"categories_nodes":[],"categories_segments":[],"categories_sizes":[],"default_left":[0,0,0,0,0,0,0,0,0],"id":12,"left_children":[1,3,5,-1,7,-1,-1,-1,-1],"loss_changes":[1.1886494E0,3.629504E-2,3.4291267E-2,0E0,1.7818855E-2,0E0,0E0,0E0,0E0],"parents":[2147483647,0,0,1,1,2,2,4,4],"right_children":[2,4,6,-1,8,-1,-1,-1,-1],"split_conditions":[1E0,1E0,1E0,1.86229E-3,1E0,-1.117486E-2,-3.1785395E-2,-3.6125965E-3,-0E0],"split_indices":[4,2,5,0,5,0,0,0,0],"split_type":[0,0,0,0,0,0,0,0,0],"sum_hessian":[7.541884E2,7.2687646E2,2.7311966E1,7.0695886E2,1.9917593E1,2.0395447E1,6.916518E0,1.5003425E1,4.914168E0],"tree_param":{"num_deleted":"0","num_feature":"6","num_nodes":"9","size_leaf_vector":"1"}},{"base_weights":[-1.3918024E-2,-6.137211E-3,-1.339035E-1,-0E0,-1.7859618E-1,-1.4924205E-2,-0E0,4.4130753E-3,-1.13457195E-1,-2.4955833E-2,-1.4278907E-2,2.205746E-3,-1.5584327E-3,-2.3421124E-2,6.84884E-4,7.1998285E-3,-2.6259575E-2],"categories":[],"categories_nodes":[],"categories_segments":[],"categories_sizes":[],"default_left":[0,0,0,0,0,0,0,0,0,0,0,0,0,0,0,0,0],"id":13,"left_children":[1,3,5,7,9,-1,-1,11,13,-1,15,-1,-1,-1,-1,-1,-1],"loss_changes":[6.389653E-1,8.11559E-1,1.348263E-1,3.1692636E-1,1.7109585E-1,0E0,0E0,2.4036042E-1,4.5820653E-1,0E0,3.5235158E-1,0E0,0E0,0E0,0E0,0E0,0E0],"parents":[2147483647,0,0,1,1,2,2,3,3,4,4,7,7,8,8,10,10],"right_children":[2,4,6,8,10,-1,-1,12,14,-1,16,-1,-1,-1,-1,-1,-1],"split_conditions":[1.6868205E0,1E0,1E0,1E0,3.2480198E-1,-1.4924205E-2,-0E0,1.302279E-1,3.2480198E-1,-2.4955833E-2,1.1030983E0,2.205746E-3,-1.5584327E-3,-2.3421124E-2,6.84884E-4,7.1998285E-3,-2.6259575E-2],"split_indices":[0,3,3,2,0,0,0,0,0,0,0,0,0,0,0,0,0],"split_type":[0,0,0,0,0,0,0,0,0,0,0,0,0,0,0,0,0],"sum_hessian":[7.5930347E2,7.179633E2,4.134013E1,6.926709E2,2.529243E1,3.913755E1,2.20258E0,6.700658E2,2.2605076E1,1.5176601E1,1.01158285E1,3.6920447E2,3.0086136E2,1.2883187E1,9.7218895E0,6.540013E0,3.5758162E0],"tree_param":{"num_deleted":"0","num_feature":"6","num_nodes":"17","size_leaf_vector":"1"}},{"base_weights":[8.608179E-3,-2.489556E-3,2.9744819E-2,-8.65273E-3,1.605625E-2,-1.5107963E-2,1.17383E-1,-2.1782853E-3,8.913862E-4,-0E0,5.4030873E-2],"categories":[],"categories_nodes":[],"categories_segments":[],"categories_sizes":[],"default_left":[0,0,0,0,0,0,0,0,0,0,0],"id":14,"left_children":[1,3,-1,5,-1,7,9,-1,-1,-1,-1],"loss_changes":[2.5635428E0,6.5394527E-1,0E0,5.221383E-1,0E0,1.14520356E-1,1.461922E0,0E0,0E0,0E0,0E0],"parents":[2147483647,0,0,1,1,3,3,5,5,6,6],"right_children":[2,4,-1,6,-1,8,10,-1,-1,-1,-1],"split_conditions":[1E0,1E0,2.9744819E-2,1E0,1.605625E-2,1E0,1E0,-2.1782853E-3,8.913862E-4,-0E0,5.4030873E-2],"split_indices":[4,2,0,3,0,1,1,0,0,0,0],"split_type":[0,0,0,0,0,0,0,0,0,0,0],"sum_hessian":[7.525004E2,7.239455E2,2.8554924E1,7.014451E2,2.2500353E1,6.718804E2,2.9564764E1,5.4214374E2,1.2973662E2,2.4114437E1,5.450328E0],"tree_param":{"num_deleted":"0","num_feature":"6","num_nodes":"11","size_leaf_vector":"1"}},{"base_weights":[1.6057348E-2,2.4508491E-2,-1.8578166E-1,-2.41404E-2,5.734516E-2,-4.8186712E-2,-3.4745264E-1,8.48403E-2,-4.327393E-2,7.681612E-2,-1.5759747E-2,-1.5069632E-1,3.1897347E-2,-4.4217683E-2,-0E0,1.7136442E-2,-6.007441E-3,-5.0174245E-3,1.2924782E-2,5.3298804E-3,1.3153285E-2,-1.4592478E-2,9.972723E-3,-0E0,-1.7308054E-2,3.0547878E-2,-3.2001745E-3],"categories":[],"categories_nodes":[],"categories_segments":[],"categories_sizes":[],"default_left":[0,0,0,0,0,0,0,0,0,0,0,0,0,0,0,0,0,0,0,0,0,0,0,0,0,0,0],"id":15,"left_children":[1,3,5,7,9,11,13,15,17,19,21,23,25,-1,-1,-1,-1,-1,-1,-1,-1,-1,-1,-1,-1,-1,-1],"loss_changes":[1.2255232E0,1.1931732E0,4.1730523E-1,5.8971643E-1,6.660688E-1,2.1342626E-1,2.3458147E-1,5.662044E-1,2.6708663E-1,3.6057544E-1,1.3778939E0,3.9095387E-2,2.914643E-1,0E0,0E0,0E0,0E0,0E0,0E0,0E0,0E0,0E0,0E0,0E0,0E0,0E0,0E0],"parents":[2147483647,0,0,1,1,2,2,3,3,4,4,5,5,6,6,7,7,8,8,9,9,10,10,11,11,12,12],"right_children":[2,4,6,8,10,12,14,16,18,20,22,24,26,-1,-1,-1,-1,-1,-1,-1,-1,-1,-1,-1,-1,-1,-1],"split_conditions":[1E0,-2.5892025E-1,9.085242E-1,-1.4263648E0,1.4922465E0,-2.5892025E-1,1.6868205E0,1E0,1E0,1E0,1.6868205E0,-1.4263648E0,3.2480198E-1,-4.4217683E-2,-0E0,1.7136442E-2,-6.007441E-3,-5.0174245E-3,1.2924782E-2,5.3298804E-3,1.3153285E-2,-1.4592478E-2,9.972723E-3,-0E0,-1.7308054E-2,3.0547878E-2,-3.2001745E-3],"split_indices":[4,0,0,0,0,0,0,5,2,5,0,0,0,0,0,0,0,0,0,0,0,0,0,0,0,0,0],"split_type":[0,0,0,0,0,0,0,0,0,0,0,0,0,0,0,0,0,0,0,0,0,0,0,0,0,0,0],"sum_hessian":[7.620607E2,7.3465594E2,2.7404778E1,2.9001886E2,4.446371E2,1.7176746E1,1.022803E1,3.8897923E1,2.5112094E2,3.5647995E2,8.815713E1,9.8851795E0,7.291567E0,7.1324883E0,3.0955422E0,2.6401928E1,1.2495994E1,2.4493181E2,6.18913E0,2.5709308E2,9.938686E1,4.33563E1,4.4800827E1,1.3284053E0,8.556774E0,2.1463306E0,5.145236E0],"tree_param":{"num_deleted":"0","num_feature":"6","num_nodes":"27","size_leaf_vector":"1"}},{"base_weights":[1.8045306E-2,-1.4643301E-2,2.8049294E-2,8.045537E-2,-1.9948727E-3,5.5684492E-2,1.930124E-1,1.8316057E-2,-9.450104E-2,1.3000846E-2,3.581219E-3,1.992642E-2,-0E0,-8.6824E-3,3.236347E-3,-1.2730981E-2,1.8871775E-2],"categories":[],"categories_nodes":[],"categories_segments":[],"categories_sizes":[],"default_left":[0,0,0,0,0,0,0,0,0,0,0,0,0,0,0,0,0],"id":16,"left_children":[1,-1,3,5,7,9,11,13,15,-1,-1,-1,-1,-1,-1,-1,-1],"loss_changes":[1.1716938E0,0E0,1.1518049E0,5.9968543E-1,8.7401503E-1,2.3891985E-1,5.4000497E-2,5.0795346E-1,7.7874446E-1,0E0,0E0,0E0,0E0,0E0,0E0,0E0,0E0],"parents":[2147483647,0,0,2,2,3,3,4,4,5,5,6,6,7,7,8,8],"right_children":[2,-1,4,6,8,10,12,14,16,-1,-1,-1,-1,-1,-1,-1,-1],"split_conditions":[-1.4263648E0,-1.4643301E-2,-2.5892025E-1,-4.5349434E-1,1E0,-1.2317907E0,1E0,-6.434618E-2,1.6868205E0,1.3000846E-2,3.581219E-3,1.992642E-2,-0E0,-8.6824E-3,3.236347E-3,-1.2730981E-2,1.8871775E-2],"split_indices":[0,0,0,0,1,0,2,0,0,0,0,0,0,0,0,0,0],"split_type":[0,0,0,0,0,0,0,0,0,0,0,0,0,0,0,0,0],"sum_hessian":[7.4456274E2,3.9042175E1,7.0552057E2,2.6253857E2,4.4298203E2,2.2004852E2,4.2490044E1,3.594558E2,8.352622E1,3.9945683E1,1.8010283E2,4.1163902E1,1.3261389E0,3.755972E1,3.218961E2,7.693033E1,6.595891E0],"tree_param":{"num_deleted":"0","num_feature":"6","num_nodes":"17","size_leaf_vector":"1"}},{"base_weights":[-0E0,-3.9335493E-2,4.9030617E-2,-5.0734945E-2,2.5198904E-1,7.113678E-2,-7.487276E-2,-2.8295169E-2,-1.3424751E-1,4.2856833E-1,5.0783694E-2,3.850236E-2,1.908516E-1,-1.0705786E-2,2.3151305E-2,-3.6499319E-3,1.569016E-2,-2.1351382E-2,-3.0867637E-3,5.6259185E-2,-0E0,-2.0115707E-2,2.9849345E-2,4.4938056E-3,-5.165152E-3,6.8764887E-3,3.4509867E-2],"categories":[],"categories_nodes":[],"categories_segments":[],"categories_sizes":[],"default_left":[0,0,0,0,0,0,0,0,0,0,0,0,0,0,0,0,0,0,0,0,0,0,0,0,0,0,0],"id":17,"left_children":[1,3,5,7,9,11,13,15,17,19,21,23,25,-1,-1,-1,-1,-1,-1,-1,-1,-1,-1,-1,-1,-1,-1],"loss_changes":[1.4364148E0,1.2970953E0,9.0486413E-1,6.716752E-1,2.4376994E-1,9.844191E-1,4.2493048E-1,4.3822226E-1,5.31188E-1,3.778057E-1,6.768989E-1,1.3071528E-1,8.4519696E-1,0E0,0E0,0E0,0E0,0E0,0E0,0E0,0E0,0E0,0E0,0E0,0E0,0E0,0E0],"parents":[2147483647,0,0,1,1,2,2,3,3,4,4,5,5,6,6,7,7,8,8,9,9,10,10,11,11,12,12],"right_children":[2,4,6,8,10,12,14,16,18,20,22,24,26,-1,-1,-1,-1,-1,-1,-1,-1,-1,-1,-1,-1,-1,-1],"split_conditions":[3.2480198E-1,1E0,1.6868205E0,-6.434618E-2,-1.0372165E0,1E0,1E0,1E0,1.302279E-1,1E0,-2.5892025E-1,1E0,1.1030983E0,-1.0705786E-2,2.3151305E-2,-3.6499319E-3,1.569016E-2,-2.1351382E-2,-3.0867637E-3,5.6259185E-2,-0E0,-2.0115707E-2,2.9849345E-2,4.4938056E-3,-5.165152E-3,6.8764887E-3,3.4509867E-2],"split_indices":[0,2,0,0,0,1,3,3,0,1,0,3,0,0,0,0,0,0,0,0,0,0,0,0,0,0,0],"split_type":[0,0,0,0,0,0,0,0,0,0,0,0,0,0,0,0,0,0,0,0,0,0,0,0,0,0,0],"sum_hessian":[7.441288E2,4.1603183E2,3.28097E2,4.0281204E2,1.3219784E1,2.822082E2,4.588877E1,3.2327435E2,7.95377E1,5.1154222E0,8.104362E0,2.2607741E2,5.6130787E1,4.3592037E1,2.296732E0,3.1291507E2,1.0359279E1,4.1678738E1,3.7858955E1,3.7424479E0,1.3729744E0,3.1103382E0,4.9940233E0,2.166587E2,9.41871E0,3.394815E1,2.2182634E1],"tree_param":{"num_deleted":"0","num_feature":"6","num_nodes":"27","size_leaf_vector":"1"}},{"base_weights":[-1.5802884E-2,-7.869618E-2,7.3216897E-3,-0E0,-9.7390905E-2,6.0402304E-2,-2.9690977E-2,1.2852934E-2,-2.9931206E-2,-1.4229949E-2,1.350061E-2,4.8192225E-2,2.78486E-2,-2.1131044E-2,9.840974E-4,-2.364549E-3,1.5854651E-2,2.722568E-3,1.2277798E-2,3.9470284E-3,-2.3444612E-3],"categories":[],"categories_nodes":[],"categories_segments":[],"categories_sizes":[],"default_left":[0,0,0,0,0,0,0,0,0,0,0,0,0,0,0,0,0,0,0,0,0],"id":18,"left_children":[1,3,5,7,9,11,13,-1,-1,-1,15,17,-1,-1,19,-1,-1,-1,-1,-1,-1],"loss_changes":[1.1456172E0,2.8902197E-1,1.1032324E0,1.7587279E0,9.0401435E-1,4.4364637E-1,1.8927349E0,0E0,0E0,0E0,3.2006836E-1,2.71973E-1,0E0,0E0,2.6570377E-1,0E0,0E0,0E0,0E0,0E0,0E0],"parents":[2147483647,0,0,1,1,2,2,3,3,4,4,5,5,6,6,10,10,11,11,14,14],"right_children":[2,4,6,8,10,12,14,-1,-1,-1,16,18,-1,-1,20,-1,-1,-1,-1,-1,-1],"split_conditions":[-6.480684E-1,-1.4263648E0,3.2480198E-1,1E0,1E0,1E0,5.1937604E-1,1.2852934E-2,-2.9931206E-2,-1.4229949E-2,-8.426425E-1,1.302279E-1,2.78486E-2,-2.1131044E-2,1.1030983E0,-2.364549E-3,1.5854651E-2,2.722568E-3,1.2277798E-2,3.9470284E-3,-2.3444612E-3],"split_indices":[0,0,0,5,5,3,0,0,0,0,0,0,0,0,0,0,0,0,0,0,0],"split_type":[0,0,0,0,0,0,0,0,0,0,0,0,0,0,0,0,0,0,0,0,0],"sum_hessian":[7.617672E2,2.0995605E2,5.5181116E2,4.27438E1,1.6721225E2,2.3198859E2,3.1982257E2,2.9790075E1,1.2953726E1,1.2202183E2,4.5190426E1,2.2301604E2,8.972552E0,4.771647E1,2.721061E2,3.389878E1,1.1291647E1,1.8037903E2,4.2637012E1,1.1336202E2,1.5874408E2],"tree_param":{"num_deleted":"0","num_feature":"6","num_nodes":"21","size_leaf_vector":"1"}},{"base_weights":[-6.195174E-3,2.2878619E-2,-9.030385E-2,9.121261E-2,-1.8773753E-2,-2.9698504E-2,-1.9786106E-1,1.20003805E-1,5.2341036E-2,-1.3953725E-2,-2.8780543E-3,-1.7706816E-1,7.169036E-2,-3.8157195E-2,-1.1900671E-1,4.128165E-3,1.3522199E-2,7.838427E-3,-2.7061943E-3,6.813744E-4,-8.499409E-3,-2.0085476E-2,-4.1597704E-3,1.0151032E-2,-4.375681E-4,-1.3132758E-2,-0E0],"categories":[],"categories_nodes":[],"categories_segments":[],"categories_sizes":[],"default_left":[0,0,0,0,0,0,0,0,0,0,0,0,0,0,0,0,0,0,0,0,0,0,0,0,0,0,0],"id":19,"left_children":[1,3,5,7,9,11,13,15,17,-1,19,21,23,-1,25,-1,-1,-1,-1,-1,-1,-1,-1,-1,-1,-1,-1],"loss_changes":[1.872251E0,1.6161029E0,1.1679782E0,1.4782631E-1,5.825442E-1,2.015166E0,6.899686E-1,4.4150233E-2,2.356464E-1,0E0,2.830526E-1,4.9210906E-2,2.2142097E-1,0E0,1.1944097E-1,0E0,0E0,0E0,0E0,0E0,0E0,0E0,0E0,0E0,0E0,0E0,0E0],"parents":[2147483647,0,0,1,1,2,2,3,3,4,4,5,5,6,6,7,7,8,8,10,10,11,11,12,12,14,14],"right_children":[2,4,6,8,10,12,14,16,18,-1,20,22,24,-1,26,-1,-1,-1,-1,-1,-1,-1,-1,-1,-1,-1,-1],"split_conditions":[1E0,-2.5892025E-1,5.1937604E-1,-8.426425E-1,-6.434618E-2,-6.480684E-1,9.085242E-1,-1.4263648E0,1E0,-1.3953725E-2,1.6868205E0,1E0,1E0,-3.8157195E-2,1E0,4.128165E-3,1.3522199E-2,7.838427E-3,-2.7061943E-3,6.813744E-4,-8.499409E-3,-2.0085476E-2,-4.1597704E-3,1.0151032E-2,-4.375681E-4,-1.3132758E-2,-0E0],"split_indices":[5,0,0,0,0,0,0,0,1,0,0,1,1,0,3,0,0,0,0,0,0,0,0,0,0,0,0],"split_type":[0,0,0,0,0,0,0,0,0,0,0,0,0,0,0,0,0,0,0,0,0,0,0,0,0,0,0],"sum_hessian":[7.5000336E2,5.534693E2,1.9653407E2,2.1369693E2,3.3977237E2,1.2949323E2,6.704085E1,1.1417806E2,9.9518875E1,3.4957603E1,3.0481476E2,5.4484535E1,7.50087E1,1.707669E1,4.9964157E1,2.442064E1,8.975742E1,7.9690994E1,1.9827877E1,2.680107E2,3.6804058E1,4.27966E1,1.1687935E1,5.836626E1,1.6642435E1,4.777538E1,2.1887774E0],"tree_param":{"num_deleted":"0","num_feature":"6","num_nodes":"27","size_leaf_vector":"1"}},{"base_weights":[-1.6064942E-2,-2.254997E-2,1.6230738E-1,-5.6946762E-2,2.0399556E-2,3.5011962E-1,-6.8466594E-3,2.5611161E-3,-8.125765E-2,1.5185319E-2,-0E0,5.0712932E-2,1.3769759E-1,-2.0459448E-1,8.4890254E-2,-1.032291E-3,4.5874294E-2,-9.028277E-3,1.3653072E-2,-9.608335E-3,1.3885272E-3,-2.9403558E-2,3.786764E-2,-0E0,-2.5551558E-2,1.9931309E-2,-0E0],"categories":[],"categories_nodes":[],"categories_segments":[],"categories_sizes":[],"default_left":[0,0,0,0,0,0,0,0,0,0,0,0,0,0,0,0,0,0,0,0,0,0,0,0,0,0,0],"id":20,"left_children":[1,3,5,7,9,11,13,15,17,-1,19,-1,21,23,25,-1,-1,-1,-1,-1,-1,-1,-1,-1,-1,-1,-1],"loss_changes":[8.188073E-1,1.115374E0,9.4468373E-1,6.452321E-1,9.074634E-1,3.849435E-2,3.011313E-1,9.132801E-1,5.852201E-1,0E0,3.9551038E-1,0E0,1.00834E0,4.9380764E-2,4.1110743E-2,0E0,0E0,0E0,0E0,0E0,0E0,0E0,0E0,0E0,0E0,0E0,0E0],"parents":[2147483647,0,0,1,1,2,2,3,3,4,4,5,5,6,6,7,7,8,8,10,10,12,12,13,13,14,14],"right_children":[2,4,6,8,10,12,14,16,18,-1,20,-1,22,24,26,-1,-1,-1,-1,-1,-1,-1,-1,-1,-1,-1,-1],"split_conditions":[1E0,3.2480198E-1,1.302279E-1,-1.0372165E0,5.1937604E-1,-1.0372165E0,7.1395016E-1,1E0,1E0,1.5185319E-2,7.1395016E-1,5.0712932E-2,-4.5349434E-1,3.2480198E-1,1.1030983E0,-1.032291E-3,4.5874294E-2,-9.028277E-3,1.3653072E-2,-9.608335E-3,1.3885272E-3,-2.9403558E-2,3.786764E-2,-0E0,-2.5551558E-2,1.9931309E-2,-0E0],"split_indices":[2,0,0,0,0,0,0,3,4,0,0,0,0,0,0,0,0,0,0,0,0,0,0,0,0,0,0],"split_type":[0,0,0,0,0,0,0,0,0,0,0,0,0,0,0,0,0,0,0,0,0,0,0,0,0,0,0],"sum_hessian":[7.6409735E2,7.4083954E2,2.325777E1,4.176632E2,3.2317636E2,1.1914795E1,1.1342976E1,1.1543375E2,3.0222946E2,4.420356E1,2.789728E2,4.6998076E0,7.2149878E0,4.931908E0,6.411068E0,1.1214766E2,3.2860894E0,2.9297006E2,9.259379E0,3.6762E1,2.422108E2,1.7624218E0,5.4525657E0,1.3723729E0,3.5595353E0,1.3792534E0,5.0318146E0],"tree_param":{"num_deleted":"0","num_feature":"6","num_nodes":"27","size_leaf_vector":"1"}},{"base_weights":[9.705898E-4,8.667204E-3,-2.0022777E-1,-4.3147143E-2,3.0449992E-2,-2.4872178E-1,-0E0,2.8815182E-2,-6.534307E-2,5.255276E-2,-4.899818E-2,-5.2242402E-2,-4.629299E-2,3.664262E-3,-0E0,-8.074972E-3,-1.2721644E-3,3.2422505E-3,1.3952819E-2,-1.1427437E-2,5.0996677E-3,-3.0537164E-2,1.648217E-2],"categories":[],"categories_nodes":[],"categories_segments":[],"categories_sizes":[],"default_left":[0,0,0,0,0,0,0,0,0,0,0,0,0,0,0,0,0,0,0,0,0,0,0],"id":21,"left_children":[1,3,5,7,9,11,-1,13,15,17,19,21,-1,-1,-1,-1,-1,-1,-1,-1,-1,-1,-1],"loss_changes":[1.079264E0,8.224091E-1,3.3707213E-1,3.5653815E-1,9.2365927E-1,6.448356E-1,0E0,2.0705756E-2,8.728224E-2,6.360594E-1,7.524531E-1,8.80389E-1,0E0,0E0,0E0,0E0,0E0,0E0,0E0,0E0,0E0,0E0,0E0],"parents":[2147483647,0,0,1,1,2,2,3,3,4,4,5,5,7,7,8,8,9,9,10,10,11,11],"right_children":[2,4,6,8,10,12,-1,14,16,18,20,22,-1,-1,-1,-1,-1,-1,-1,-1,-1,-1,-1],"split_conditions":[1E0,-6.480684E-1,1.6868205E0,-1.4263648E0,1.2976724E0,9.085242E-1,-0E0,1E0,-8.426425E-1,9.085242E-1,1.6868205E0,-2.5892025E-1,-4.629299E-2,3.664262E-3,-0E0,-8.074972E-3,-1.2721644E-3,3.2422505E-3,1.3952819E-2,-1.1427437E-2,5.0996677E-3,-3.0537164E-2,1.648217E-2],"split_indices":[4,0,0,0,0,0,0,2,0,0,0,0,0,0,0,0,0,0,0,0,0,0,0],"split_type":[0,0,0,0,0,0,0,0,0,0,0,0,0,0,0,0,0,0,0,0,0,0,0],"sum_hessian":[7.5668427E2,7.321199E2,2.4564379E1,2.0960393E2,5.22516E2,2.10162E1,3.5481784E0,4.4029423E1,1.6557451E2,4.1397778E2,1.0853817E2,1.2827981E1,8.188219E0,4.226741E1,1.762013E0,1.2031266E2,4.5261845E1,3.419547E2,7.202308E1,6.860838E1,3.9929787E1,6.7976003E0,6.0303802E0],"tree_param":{"num_deleted":"0","num_feature":"6","num_nodes":"23","size_leaf_vector":"1"}},{"base_weights":[-1.8896116E-2,4.9334047E-3,-8.72091E-2,7.81637E-2,-2.2343764E-2,-2.282734E-2,-3.9014373E-2,9.2688724E-2,-2.8307557E-1,-5.100386E-2,1.0848608E-1,4.0535126E-2,-1.4028153E-1,9.981453E-3,-0E0,-0E0,-3.975531E-2,-3.54534E-3,-1.2601971E-2,1.7653862E-2,2.329365E-3,5.3255255E-3,-2.1135671E-2,-2.6466101E-2,-7.022603E-3],"categories":[],"categories_nodes":[],"categories_segments":[],"categories_sizes":[],"default_left":[0,0,0,0,0,0,0,0,0,0,0,0,0,0,0,0,0,0,0,0,0,0,0,0,0],"id":22,"left_children":[1,3,5,7,9,-1,11,13,15,17,19,21,23,-1,-1,-1,-1,-1,-1,-1,-1,-1,-1,-1,-1],"loss_changes":[1.2674713E0,1.1359544E0,1.2187717E0,7.4698275E-1,1.4741246E0,0E0,1.2888519E0,1.4983058E-1,1.8176833E-1,3.0136967E-1,2.9567915E-1,2.0055436E-1,4.2689955E-1,0E0,0E0,0E0,0E0,0E0,0E0,0E0,0E0,0E0,0E0,0E0,0E0],"parents":[2147483647,0,0,1,1,2,2,3,3,4,4,6,6,7,7,8,8,9,9,10,10,11,11,12,12],"right_children":[2,4,6,8,10,-1,12,14,16,18,20,22,24,-1,-1,-1,-1,-1,-1,-1,-1,-1,-1,-1,-1],"split_conditions":[1E0,-6.480684E-1,-8.426425E-1,1E0,1.4922465E0,-2.282734E-2,5.1937604E-1,1E0,-1.2317907E0,1.1030983E0,1.6868205E0,1E0,9.085242E-1,9.981453E-3,-0E0,-0E0,-3.975531E-2,-3.54534E-3,-1.2601971E-2,1.7653862E-2,2.329365E-3,5.3255255E-3,-2.1135671E-2,-2.6466101E-2,-7.022603E-3],"split_indices":[5,0,0,3,0,0,0,4,0,0,0,4,0,0,0,0,0,0,0,0,0,0,0,0,0],"split_type":[0,0,0,0,0,0,0,0,0,0,0,0,0,0,0,0,0,0,0,0,0,0,0,0,0],"sum_hessian":[7.52074E2,5.528371E2,1.9923685E2,1.5450539E2,3.9833173E2,4.7142197E1,1.5209465E2,1.5057834E2,3.9270477E0,3.3038763E2,6.7944084E1,8.2751915E1,6.9342735E1,1.4474716E2,5.8311806E0,1.2789171E0,2.6481307E0,2.803998E2,4.99878E1,3.3912865E1,3.4031223E1,8.1414185E1,1.3377262E0,2.141196E1,4.793077E1],"tree_param":{"num_deleted":"0","num_feature":"6","num_nodes":"25","size_leaf_vector":"1"}},{"base_weights":[1.3030794E-2,4.8475866E-3,1.8676142E-1,1.280171E-1,-1.2047034E-3,3.3540246E-1,-6.816403E-3,-9.199789E-3,4.4361364E-2,-1.8579677E-2,3.1456303E-2,-0E0,4.5503102E-2,-2.2027748E-2,7.814655E-2,-4.4994056E-3,1.5586046E-2,-5.342431E-3,-1.3809212E-3,5.286149E-3,-5.546966E-3,1.1215844E-2,-0E0,2.9734513E-2,-1.4819795E-2],"categories":[],"categories_nodes":[],"categories_segments":[],"categories_sizes":[],"default_left":[0,0,0,0,0,0,0,0,0,0,0,0,0,0,0,0,0,0,0,0,0,0,0,0,0],"id":23,"left_children":[1,3,5,7,9,11,13,15,-1,17,19,21,-1,-1,23,-1,-1,-1,-1,-1,-1,-1,-1,-1,-1],"loss_changes":[9.8184955E-1,6.064791E-1,1.0686924E0,1.8664405E0,3.864552E-1,5.783982E-1,3.2652944E-1,1.0727934E-1,0E0,4.2420924E-2,4.3039387E-1,4.724604E-2,0E0,0E0,5.383398E-1,0E0,0E0,0E0,0E0,0E0,0E0,0E0,0E0,0E0,0E0],"parents":[2147483647,0,0,1,1,2,2,3,3,4,4,5,5,6,6,7,7,9,9,10,10,11,11,14,14],"right_children":[2,4,6,8,10,12,14,16,-1,18,20,22,-1,-1,24,-1,-1,-1,-1,-1,-1,-1,-1,-1,-1],"split_conditions":[1E0,-1.4263648E0,9.085242E-1,1E0,7.1395016E-1,-6.480684E-1,1.2976724E0,1E0,4.4361364E-2,-1.2317907E0,1.6868205E0,-8.426425E-1,4.5503102E-2,-2.2027748E-2,1.6868205E0,-4.4994056E-3,1.5586046E-2,-5.342431E-3,-1.3809212E-3,5.286149E-3,-5.546966E-3,1.1215844E-2,-0E0,2.9734513E-2,-1.4819795E-2],"split_indices":[4,0,0,5,0,0,0,2,0,0,0,0,0,0,0,0,0,0,0,0,0,0,0,0,0],"split_type":[0,0,0,0,0,0,0,0,0,0,0,0,0,0,0,0,0,0,0,0,0,0,0,0,0],"sum_hessian":[7.576546E2,7.2730255E2,3.03521E1,3.6989742E1,6.903128E2,1.8215445E1,1.2136656E1,2.5353115E1,1.1636625E1,4.608762E2,2.294366E2,5.9819584E0,1.2233487E1,4.67741E0,7.4592457E0,2.392208E1,1.4310358E0,4.164929E1,4.192269E2,1.8903207E2,4.040453E1,2.7557917E0,3.2261665E0,4.7523093E0,2.7069364E0],"tree_param":{"num_deleted":"0","num_feature":"6","num_nodes":"25","size_leaf_vector":"1"}},{"base_weights":[-2.4819134E-2,-3.8020648E-2,1.89185E-1,-2.504636E-2,-1.424052E-1,2.2659117E-2,-0E0,-3.7927292E-2,6.2318765E-2,-1.8869175E-1,2.7987892E-2,-5.6375656E-3,6.526752E-4,1.4634239E-2,-0E0,-1.2831787E-2,-3.0965528E-2,1.2335778E-2,-8.349798E-3],"categories":[],"categories_nodes":[],"categories_segments":[],"categories_sizes":[],"default_left":[0,0,0,0,0,0,0,0,0,0,0,0,0,0,0,0,0,0,0],"id":24,"left_children":[1,3,5,7,9,-1,-1,11,13,15,17,-1,-1,-1,-1,-1,-1,-1,-1],"loss_changes":[2.0898428E0,8.913001E-1,2.639172E-1,7.195772E-1,6.8037164E-1,0E0,0E0,4.9315375E-1,4.811474E-1,1.921432E-1,1.8622652E-1,0E0,0E0,0E0,0E0,0E0,0E0,0E0,0E0],"parents":[2147483647,0,0,1,1,2,2,3,3,4,4,7,7,8,8,9,9,10,10],"right_children":[2,4,6,8,10,-1,-1,12,14,16,18,-1,-1,-1,-1,-1,-1,-1,-1],"split_conditions":[1.6868205E0,1.2976724E0,1E0,9.085242E-1,1E0,2.2659117E-2,-0E0,1E0,1.1030983E0,1E0,1E0,-5.6375656E-3,6.526752E-4,1.4634239E-2,-0E0,-1.2831787E-2,-3.0965528E-2,1.2335778E-2,-8.349798E-3],"split_indices":[0,0,5,0,1,0,0,5,0,5,5,0,0,0,0,0,0,0,0],"split_type":[0,0,0,0,0,0,0,0,0,0,0,0,0,0,0,0,0,0,0],"sum_hessian":[7.629276E2,7.215738E2,4.1353798E1,6.4716547E2,7.440833E1,3.3664536E1,7.6892653E0,5.6949E2,7.7675446E1,6.0736515E1,1.3671813E1,4.1022617E2,1.5926385E2,3.573376E1,4.1941685E1,4.464707E1,1.6089443E1,9.728238E0,3.9435747E0],"tree_param":{"num_deleted":"0","num_feature":"6","num_nodes":"19","size_leaf_vector":"1"}},{"base_weights":[-6.070985E-3,2.5953585E-2,-2.8427783E-2,3.2857902E-2,-1.5328874E-1,-6.998761E-3,-1.15005806E-1,-8.950548E-3,4.1025713E-2,-3.0849203E-1,2.006879E-2,4.3238467E-3,-1.1895294E-2,-1.4819925E-1,1.8306447E-2,-0E0,-1.0267151E-2,6.133146E-3,2.0201516E-3,-4.71353E-2,-0E0,-1.9495242E-3,1.078916E-2,-2.5990395E-2,-8.41204E-3],"categories":[],"categories_nodes":[],"categories_segments":[],"categories_sizes":[],"default_left":[0,0,0,0,0,0,0,0,0,0,0,0,0,0,0,0,0,0,0,0,0,0,0,0,0],"id":25,"left_children":[1,3,5,7,9,11,13,15,17,19,-1,21,-1,23,-1,-1,-1,-1,-1,-1,-1,-1,-1,-1,-1],"loss_changes":[5.5003273E-1,3.2354212E-1,7.924645E-1,1.18229836E-1,6.0153246E-1,5.3292024E-1,8.671262E-1,8.180117E-2,6.778145E-2,3.660974E-1,0E0,8.783277E-1,0E0,3.7904322E-1,0E0,0E0,0E0,0E0,0E0,0E0,0E0,0E0,0E0,0E0,0E0],"parents":[2147483647,0,0,1,1,2,2,3,3,4,4,5,5,6,6,7,7,8,8,9,9,11,11,13,13],"right_children":[2,4,6,8,10,12,14,16,18,20,-1,22,-1,24,-1,-1,-1,-1,-1,-1,-1,-1,-1,-1,-1],"split_conditions":[-2.5892025E-1,1E0,1E0,-1.4263648E0,1E0,1.6868205E0,1.6868205E0,1E0,-8.426425E-1,-6.480684E-1,2.006879E-2,1.2976724E0,-1.1895294E-2,3.2480198E-1,1.8306447E-2,-0E0,-1.0267151E-2,6.133146E-3,2.0201516E-3,-4.71353E-2,-0E0,-1.9495242E-3,1.078916E-2,-2.5990395E-2,-8.41204E-3],"split_indices":[0,2,1,0,1,0,0,1,0,0,0,0,0,0,0,0,0,0,0,0,0,0,0,0,0],"split_type":[0,0,0,0,0,0,0,0,0,0,0,0,0,0,0,0,0,0,0,0,0,0,0,0,0],"sum_hessian":[7.644794E2,3.0502567E2,4.5945367E2,2.971845E2,7.84118E0,3.73792E2,8.566169E1,3.854958E1,2.5863492E2,6.5224075E0,1.3187723E0,3.3627747E2,3.7514523E1,7.903997E1,6.621718E0,3.1489052E1,7.06053E0,1.1780606E2,1.4082886E2,3.869996E0,2.6524115E0,2.7013443E2,6.614302E1,2.4854233E1,5.4185738E1],"tree_param":{"num_deleted":"0","num_feature":"6","num_nodes":"25","size_leaf_vector":"1"}},{"base_weights":[-3.2209686E-3,6.8016015E-2,-1.837242E-2,4.992611E-2,3.0615714E-1,-8.166921E-2,-4.8153498E-4,7.6893784E-2,3.0862035E-2,5.1375188E-2,-0E0,-7.059288E-2,-3.4694325E-2,-6.953795E-3,1.6598198E-1,-4.9905563E-3,3.416508E-2,9.058913E-3,-9.156157E-3,-9.02921E-3,-0E0,-2.271448E-3,3.3073667E-3,3.567567E-2,-1.5806837E-2],"categories":[],"categories_nodes":[],"categories_segments":[],"categories_sizes":[],"default_left":[0,0,0,0,0,0,0,0,0,0,0,0,0,0,0,0,0,0,0,0,0,0,0,0,0],"id":26,"left_children":[1,3,5,7,9,11,13,15,17,-1,-1,19,-1,21,23,-1,-1,-1,-1,-1,-1,-1,-1,-1,-1],"loss_changes":[7.8025484E-1,3.4534955E-1,6.617817E-1,5.1139295E-3,6.501148E-1,1.5052003E-1,4.507272E-1,1.4352894E0,6.1075544E-1,0E0,0E0,1.4440191E-1,0E0,2.962093E-1,1.1156881E0,0E0,0E0,0E0,0E0,0E0,0E0,0E0,0E0,0E0,0E0],"parents":[2147483647,0,0,1,1,2,2,3,3,4,4,5,5,6,6,7,7,8,8,11,11,13,13,14,14],"right_children":[2,4,6,8,10,12,14,16,18,-1,-1,20,-1,22,24,-1,-1,-1,-1,-1,-1,-1,-1,-1,-1],"split_conditions":[-1.0372165E0,1E0,-4.5349434E-1,-1.4263648E0,1E0,1E0,1E0,1E0,1E0,5.1375188E-2,-0E0,1E0,-3.4694325E-2,1E0,1E0,-4.9905563E-3,3.416508E-2,9.058913E-3,-9.156157E-3,-9.02921E-3,-0E0,-2.271448E-3,3.3073667E-3,3.567567E-2,-1.5806837E-2],"split_indices":[0,2,0,0,1,2,2,5,5,0,0,5,0,5,5,0,0,0,0,0,0,0,0,0,0],"split_type":[0,0,0,0,0,0,0,0,0,0,0,0,0,0,0,0,0,0,0,0,0,0,0,0,0],"sum_hessian":[7.437369E2,1.2404239E2,6.1969446E2,1.1836061E2,5.6817775E0,1.2961455E2,4.9007993E2,3.690074E1,8.145988E1,3.8359776E0,1.8458E0,1.2744417E2,2.1703844E0,4.7555188E2,1.4528023E1,2.4222775E1,1.2677966E1,5.7668983E1,2.379089E1,9.522436E1,3.2219807E1,3.5047675E2,1.2507514E2,1.005216E1,4.475862E0],"tree_param":{"num_deleted":"0","num_feature":"6","num_nodes":"25","size_leaf_vector":"1"}},{"base_weights":[1.1575763E-3,8.641367E-3,-1.6098136E-2,1.1319131E-2,-5.5601113E-2,8.347496E-5,5.3067494E-2,3.506465E-3,-3.7744254E-2,-1.9492462E-4,6.9064684E-3,6.7556747E-3,-2.089098E-2],"categories":[],"categories_nodes":[],"categories_segments":[],"categories_sizes":[],"default_left":[0,0,0,0,0,0,0,0,0,0,0,0,0],"id":27,"left_children":[1,3,-1,5,7,9,11,-1,-1,-1,-1,-1,-1],"loss_changes":[8.632742E-1,1.0627943E-1,0E0,3.1182408E-1,8.3871186E-1,1.1486381E-1,4.8832193E-1,0E0,0E0,0E0,0E0,0E0,0E0],"parents":[2147483647,0,0,1,1,3,3,4,4,5,5,6,6],"right_children":[2,4,-1,6,8,10,12,-1,-1,-1,-1,-1,-1],"split_conditions":[1E0,1E0,-1.6098136E-2,1E0,1E0,1E0,1E0,3.506465E-3,-3.7744254E-2,-1.9492462E-4,6.9064684E-3,6.7556747E-3,-2.089098E-2],"split_indices":[4,2,0,1,1,3,3,0,0,0,0,0,0],"split_type":[0,0,0,0,0,0,0,0,0,0,0,0,0],"sum_hessian":[7.720694E2,7.418582E2,3.0211212E1,7.204357E2,2.1422483E1,5.778883E2,1.4254744E2,1.61971E1,5.225385E0,5.552497E2,2.2638569E1,1.3758849E2,4.9589543E0],"tree_param":{"num_deleted":"0","num_feature":"6","num_nodes":"13","size_leaf_vector":"1"}},{"base_weights":[-1.7015047E-3,2.905028E-2,-8.915909E-2,1.2377009E-1,2.7426106E-3,-2.4735597E-1,-2.6407512E-2,1.4447445E-1,-2.745932E-1,2.3401944E-2,-8.1555285E-2,-1.6153578E-2,-3.558492E-1,7.97156E-2,-1.4641654E-1,1.1145555E-2,2.5998503E-2,-3.696883E-2,-0E0,4.047071E-3,-1.4443587E-2,-4.564562E-2,-3.3600347E-3,-4.2546645E-2,-0E0,-4.820093E-3,1.1854766E-2,-1.7530521E-2,4.9537176E-4],"categories":[],"categories_nodes":[],"categories_segments":[],"categories_sizes":[],"default_left":[0,0,0,0,0,0,0,0,0,0,0,0,0,0,0,0,0,0,0,0,0,0,0,0,0,0,0,0,0],"id":28,"left_children":[1,3,5,7,9,11,13,15,17,19,21,-1,23,25,27,-1,-1,-1,-1,-1,-1,-1,-1,-1,-1,-1,-1,-1,-1],"loss_changes":[2.0533676E0,1.3129287E0,1.8413653E0,9.307275E-1,7.3473084E-1,1.9034934E-1,1.9112424E0,2.126422E-1,1.1604637E-1,9.763448E-1,1.2061653E0,0E0,3.06494E-1,4.1940543E-1,3.9796925E-1,0E0,0E0,0E0,0E0,0E0,0E0,0E0,0E0,0E0,0E0,0E0,0E0,0E0,0E0],"parents":[2147483647,0,0,1,1,2,2,3,3,4,4,5,5,6,6,7,7,8,8,9,9,10,10,12,12,13,13,14,14],"right_children":[2,4,6,8,10,12,14,16,18,20,22,-1,24,26,28,-1,-1,-1,-1,-1,-1,-1,-1,-1,-1,-1,-1,-1,-1],"split_conditions":[1E0,-8.426425E-1,-6.480684E-1,1E0,1E0,-1.0372165E0,5.1937604E-1,1E0,1E0,1.6868205E0,-6.480684E-1,-1.6153578E-2,1E0,-4.5349434E-1,1.6868205E0,1.1145555E-2,2.5998503E-2,-3.696883E-2,-0E0,4.047071E-3,-1.4443587E-2,-4.564562E-2,-3.3600347E-3,-4.2546645E-2,-0E0,-4.820093E-3,1.1854766E-2,-1.7530521E-2,4.9537176E-4],"split_indices":[5,0,0,2,1,0,0,1,1,0,0,0,1,0,0,0,0,0,0,0,0,0,0,0,0,0,0,0,0],"split_type":[0,0,0,0,0,0,0,0,0,0,0,0,0,0,0,0,0,0,0,0,0,0,0,0,0,0,0,0,0],"sum_hessian":[7.503444E2,5.5140906E2,1.9893535E2,1.1492287E2,4.3648618E2,5.340115E1,1.4553421E2,1.1104398E2,3.8788848E0,3.5591415E2,8.057204E1,3.3778893E1,1.962226E1,7.5202545E1,7.0331665E1,9.125274E1,1.9791243E1,2.540815E0,1.3380697E0,3.264525E2,2.9461622E1,6.988968E0,7.358307E1,1.5118857E1,4.503402E0,1.4458295E1,6.0744247E1,6.1701176E1,8.630489E0],"tree_param":{"num_deleted":"0","num_feature":"6","num_nodes":"29","size_leaf_vector":"1"}},{"base_weights":[6.3518425E-3,-4.78503E-3,2.7048734E-1,-1.8156739E-2,4.692837E-2,3.2765335E-1,-3.987487E-3,-2.8956706E-2,3.2244788E-3,1.899963E-2,5.7883143E-2,7.027515E-2,3.764626E-2,1.2703493E-3,-3.639653E-3,-9.2608265E-5,1.3290874E-2,1.4448047E-2,-0E0],"categories":[],"categories_nodes":[],"categories_segments":[],"categories_sizes":[],"default_left":[0,0,0,0,0,0,0,0,0,0,0,0,0,0,0,0,0,0,0],"id":29,"left_children":[1,3,5,7,9,11,-1,13,-1,15,-1,17,-1,-1,-1,-1,-1,-1,-1],"loss_changes":[2.362726E0,4.8857075E-1,7.332976E-1,3.1790876E-1,1.7962278E0,1.1323738E-1,0E0,1.6441146E-1,0E0,3.7622732E-1,0E0,6.1021574E-2,0E0,0E0,0E0,0E0,0E0,0E0,0E0],"parents":[2147483647,0,0,1,1,2,2,3,3,4,4,5,5,7,7,9,9,11,11],"right_children":[2,4,6,8,10,12,-1,14,-1,16,-1,18,-1,-1,-1,-1,-1,-1,-1],"split_conditions":[1E0,1E0,1.6868205E0,1.2976724E0,1E0,-6.480684E-1,-3.987487E-3,-1.2317907E0,3.2244788E-3,1.1030983E0,5.7883143E-2,-8.426425E-1,3.764626E-2,1.2703493E-3,-3.639653E-3,-9.2608265E-5,1.3290874E-2,1.4448047E-2,-0E0],"split_indices":[4,1,0,0,3,0,0,0,0,0,0,0,0,0,0,0,0,0,0],"split_type":[0,0,0,0,0,0,0,0,0,0,0,0,0,0,0,0,0,0,0],"sum_hessian":[7.5659717E2,7.251128E2,3.1484365E1,5.843365E2,1.4077629E2,2.7900623E1,3.5837433E0,4.8974124E2,9.4595245E1,1.3563046E2,5.145834E0,6.469542E0,2.1431082E1,6.3916977E1,4.2582428E2,1.1254566E2,2.3084805E1,3.690418E0,2.779124E0],"tree_param":{"num_deleted":"0","num_feature":"6","num_nodes":"19","size_leaf_vector":"1"}},{"base_weights":[8.5291255E-4,-3.9693967E-2,1.7282631E-2,2.0884324E-2,-5.7767242E-2,6.528941E-2,-1.5101026E-2,1.2872352E-2,-1.9221475E-2,-1.0293207E-1,6.11894E-2,4.9374186E-2,3.5693225E-1,-2.9083135E-2,5.899846E-2,-1.4063497E-2,-6.3398457E-3,1.4134389E-2,-0E0,2.216865E-3,1.1936936E-2,-0E0,4.7837798E-2,-0E0,-9.893264E-3,9.8350225E-3,-3.4781154E-2],"categories":[],"categories_nodes":[],"categories_segments":[],"categories_sizes":[],"default_left":[0,0,0,0,0,0,0,0,0,0,0,0,0,0,0,0,0,0,0,0,0,0,0,0,0,0,0],"id":30,"left_children":[1,3,5,7,9,11,13,-1,-1,15,17,19,21,23,25,-1,-1,-1,-1,-1,-1,-1,-1,-1,-1,-1,-1],"loss_changes":[4.9884742E-1,2.517685E-1,8.8673246E-1,9.8334575E-1,9.400723E-1,8.440708E-1,3.2367525E-1,0E0,0E0,7.773304E-2,2.658829E-1,3.4615016E-1,6.118107E-1,5.31443E-1,6.502657E-1,0E0,0E0,0E0,0E0,0E0,0E0,0E0,0E0,0E0,0E0,0E0,0E0],"parents":[2147483647,0,0,1,1,2,2,3,3,4,4,5,5,6,6,9,9,10,10,11,11,12,12,13,13,14,14],"right_children":[2,4,6,8,10,12,14,-1,-1,16,18,20,22,24,26,-1,-1,-1,-1,-1,-1,-1,-1,-1,-1,-1,-1],"split_conditions":[-6.480684E-1,-1.4263648E0,3.2480198E-1,1E0,1E0,1E0,1.6868205E0,1.2872352E-2,-1.9221475E-2,-1.0372165E0,-1.0372165E0,1E0,-4.5349434E-1,1.2976724E0,1E0,-1.4063497E-2,-6.3398457E-3,1.4134389E-2,-0E0,2.216865E-3,1.1936936E-2,-0E0,4.7837798E-2,-0E0,-9.893264E-3,9.8350225E-3,-3.4781154E-2],"split_indices":[0,0,0,5,5,3,0,0,0,0,0,5,0,0,3,0,0,0,0,0,0,0,0,0,0,0,0],"split_type":[0,0,0,0,0,0,0,0,0,0,0,0,0,0,0,0,0,0,0,0,0,0,0,0,0,0,0],"sum_hessian":[7.636159E2,2.1101172E2,5.526042E2,4.2095303E1,1.6891641E2,2.2841571E2,3.2418845E2,2.97716E1,1.2323704E1,1.2557622E2,4.3340195E1,2.1933037E2,9.085341E0,2.7891428E2,4.5274178E1,5.6493755E1,6.9082466E1,2.0618626E1,2.2721571E1,1.640341E2,5.529626E1,1.797261E0,7.2880807E0,2.0142747E2,7.748679E1,4.3093E1,2.18118E0],"tree_param":{"num_deleted":"0","num_feature":"6","num_nodes":"27","size_leaf_vector":"1"}},{"base_weights":[-4.6268944E-3,4.4087745E-2,-3.9577603E-2,9.1043845E-2,-7.91136E-2,-1.5325287E-1,-2.4583884E-2,1.0027505E-1,-1.4443564E-1,-2.037423E-2,6.2397793E-2,-1.7821385E-2,-3.223236E-4,1.23661384E-1,-4.535591E-2,1.5180598E-2,3.4709738E-3,-4.4098046E-2,1.14881005E-2,9.142089E-3,-2.1026764E-2,1.4145965E-2,-0E0,-3.1161008E-3,-1.3305041E-2],"categories":[],"categories_nodes":[],"categories_segments":[],"categories_sizes":[],"default_left":[0,0,0,0,0,0,0,0,0,0,0,0,0,0,0,0,0,0,0,0,0,0,0,0,0],"id":31,"left_children":[1,3,5,7,9,11,13,15,17,-1,19,-1,-1,21,23,-1,-1,-1,-1,-1,-1,-1,-1,-1,-1],"loss_changes":[1.300976E0,1.8286512E0,6.7699915E-1,4.9372578E-1,1.5683365E0,9.050512E-2,1.21063E0,6.6017556E-1,7.571075E-1,0E0,2.6301163E-1,0E0,0E0,1.5914494E-1,3.5948116E-1,0E0,0E0,0E0,0E0,0E0,0E0,0E0,0E0,0E0,0E0],"parents":[2147483647,0,0,1,1,2,2,3,3,4,4,5,5,6,6,7,7,8,8,10,10,13,13,14,14],"right_children":[2,4,6,8,10,12,14,16,18,-1,20,-1,-1,22,24,-1,-1,-1,-1,-1,-1,-1,-1,-1,-1],"split_conditions":[-2.5892025E-1,1E0,-6.434618E-2,1E0,-8.426425E-1,1E0,1.302279E-1,-8.426425E-1,-1.0372165E0,-2.037423E-2,1E0,-1.7821385E-2,-3.223236E-4,1E0,1.6868205E0,1.5180598E-2,3.4709738E-3,-4.4098046E-2,1.14881005E-2,9.142089E-3,-2.1026764E-2,1.4145965E-2,-0E0,-3.1161008E-3,-1.3305041E-2],"split_indices":[0,5,0,2,0,5,0,0,0,0,2,0,0,3,0,0,0,0,0,0,0,0,0,0,0],"split_type":[0,0,0,0,0,0,0,0,0,0,0,0,0,0,0,0,0,0,0,0,0,0,0,0,0],"sum_hessian":[7.6340607E2,3.1282303E2,4.5058304E2,2.2962483E2,8.31982E1,4.75457E1,4.0303732E2,2.2355844E2,6.066379E0,4.588284E1,3.7315357E1,3.774534E1,9.800364E0,4.596578E1,3.5707153E2,1.20169846E2,1.033886E2,3.4027355E0,2.6636438E0,3.5983643E1,1.3317125E0,4.2843864E1,3.1219149E0,3.133993E2,4.3672256E1],"tree_param":{"num_deleted":"0","num_feature":"6","num_nodes":"25","size_leaf_vector":"1"}},{"base_weights":[-0E0,-3.9104414E-3,1.12291954E-1,-0E0,-1.4942214E-2,-0E0,3.1401426E-2,1.2269559E-3,-5.2882664E-2,-4.963435E-2,1.0665236E-2,-0E0,7.218925E-3,-5.945332E-3,-0E0,-3.9792764E-3,-2.081179E-2],"categories":[],"categories_nodes":[],"categories_segments":[],"categories_sizes":[],"default_left":[0,0,0,0,0,0,0,0,0,0,0,0,0,0,0,0,0],"id":32,"left_children":[1,3,5,7,9,11,-1,-1,13,15,-1,-1,-1,-1,-1,-1,-1],"loss_changes":[3.3657813E-1,3.257734E-2,4.4227973E-1,3.43333E-1,8.025714E-1,1.9967305E-2,0E0,0E0,6.1873347E-2,1.1137244E-1,0E0,0E0,0E0,0E0,0E0,0E0,0E0],"parents":[2147483647,0,0,1,1,2,2,3,3,4,4,5,5,8,8,9,9],"right_children":[2,4,6,8,10,12,-1,-1,14,16,-1,-1,-1,-1,-1,-1,-1],"split_conditions":[1E0,1E0,1E0,1E0,1E0,1E0,3.1401426E-2,1.2269559E-3,1E0,1E0,1.0665236E-2,-0E0,7.218925E-3,-5.945332E-3,-0E0,-3.9792764E-3,-2.081179E-2],"split_indices":[3,5,5,1,1,1,0,0,2,2,0,0,0,0,0,0,0],"split_type":[0,0,0,0,0,0,0,0,0,0,0,0,0,0,0,0,0],"sum_hessian":[7.51651E2,7.2684125E2,2.4809803E1,5.320818E2,1.9475943E2,1.8023907E1,6.7858963E0,4.3371375E2,9.836804E1,1.551869E2,3.9572533E1,1.5192359E1,2.8315487E0,9.512243E1,3.2456107E0,1.5026186E2,4.9250474E0],"tree_param":{"num_deleted":"0","num_feature":"6","num_nodes":"17","size_leaf_vector":"1"}},{"base_weights":[-2.6569992E-2,-2.13015E-2,-1.4332548E-1,-3.3956107E-2,1.00326575E-2,-7.071716E-2,-2.7256542E-1,-4.903437E-3,2.6368685E-2,2.9436905E-2,-4.930851E-2,-2.2598568E-3,-1.6033562E-2,-3.4948245E-2,-0E0,2.7438088E-3,-0E0,3.432134E-3,-9.050928E-4,-2.8183702E-3,-1.9951662E-2],"categories":[],"categories_nodes":[],"categories_segments":[],"categories_sizes":[],"default_left":[0,0,0,0,0,0,0,0,0,0,0,0,0,0,0,0,0,0,0,0,0],"id":33,"left_children":[1,3,5,7,9,11,13,-1,15,17,19,-1,-1,-1,-1,-1,-1,-1,-1,-1,-1],"loss_changes":[3.8547027E-1,3.0479887E-1,7.911539E-2,5.011167E-1,2.236671E-1,8.684024E-4,2.1133393E-1,0E0,2.8102323E-3,4.2819113E-2,1.9208468E-2,0E0,0E0,0E0,0E0,0E0,0E0,0E0,0E0,0E0,0E0],"parents":[2147483647,0,0,1,1,2,2,3,3,4,4,5,5,6,6,8,8,9,9,10,10],"right_children":[2,4,6,8,10,12,14,-1,16,18,20,-1,-1,-1,-1,-1,-1,-1,-1,-1,-1],"split_conditions":[1E0,1E0,1E0,1E0,1E0,1E0,1E0,-4.903437E-3,1E0,1E0,1E0,-2.2598568E-3,-1.6033562E-2,-3.4948245E-2,-0E0,2.7438088E-3,-0E0,3.432134E-3,-9.050928E-4,-2.8183702E-3,-1.9951662E-2],"split_indices":[4,5,5,1,1,1,1,0,3,3,3,0,0,0,0,0,0,0,0,0,0],"split_type":[0,0,0,0,0,0,0,0,0,0,0,0,0,0,0,0,0,0,0,0,0],"sum_hessian":[7.644323E2,7.3665625E2,2.7776087E1,5.360433E2,2.0061296E2,2.1252287E1,6.5238004E0,4.3563208E2,1.0041121E2,1.5790775E2,4.2705208E1,1.82726E1,2.9796858E0,5.3067327E0,1.217068E0,9.639302E1,4.018186E0,1.5174889E2,6.158854E0,4.1399284E1,1.3059218E0],"tree_param":{"num_deleted":"0","num_feature":"6","num_nodes":"21","size_leaf_vector":"1"}},{"base_weights":[1.7518641E-2,3.4780033E-2,-2.9381992E-2,9.408296E-2,1.7910851E-2,-1.6293879E-1,7.719585E-3,5.024751E-2,2.4398057E-2,3.9039083E-2,-6.989027E-2,-1.8615345E-2,-6.7684064E-3,5.4579906E-2,-4.4969644E-2,7.358802E-3,-3.8757034E-2,1.4119939E-3,1.2411596E-2,-4.4443157E-2,-2.3002161E-3,-6.168209E-3,-0E0,-6.143243E-4,8.867703E-3,-2.4370687E-2,2.7545372E-3],"categories":[],"categories_nodes":[],"categories_segments":[],"categories_sizes":[],"default_left":[0,0,0,0,0,0,0,0,0,0,0,0,0,0,0,0,0,0,0,0,0,0,0,0,0,0,0],"id":34,"left_children":[1,3,5,7,9,11,13,15,-1,17,19,-1,21,23,25,-1,-1,-1,-1,-1,-1,-1,-1,-1,-1,-1,-1],"loss_changes":[6.1600596E-1,5.036289E-1,1.0511587E0,6.124412E-1,8.1212854E-1,6.771982E-2,3.8152647E-1,8.394987E-1,0E0,7.000202E-1,1.1962804E0,0E0,1.7946208E-2,2.1926129E-1,1.0786297E0,0E0,0E0,0E0,0E0,0E0,0E0,0E0,0E0,0E0,0E0,0E0,0E0],"parents":[2147483647,0,0,1,1,2,2,3,3,4,4,5,5,6,6,7,7,9,9,10,10,12,12,13,13,14,14],"right_children":[2,4,6,8,10,12,14,16,-1,18,20,-1,22,24,26,-1,-1,-1,-1,-1,-1,-1,-1,-1,-1,-1,-1],"split_conditions":[1E0,-8.426425E-1,-8.426425E-1,1E0,1E0,1E0,5.1937604E-1,1E0,2.4398057E-2,1.2976724E0,-6.480684E-1,-1.8615345E-2,-1.4263648E0,-4.5349434E-1,9.085242E-1,7.358802E-3,-3.8757034E-2,1.4119939E-3,1.2411596E-2,-4.4443157E-2,-2.3002161E-3,-6.168209E-3,-0E0,-6.143243E-4,8.867703E-3,-2.4370687E-2,2.7545372E-3],"split_indices":[5,0,0,1,1,1,0,2,0,0,0,0,0,0,0,0,0,0,0,0,0,0,0,0,0,0,0],"split_type":[0,0,0,0,0,0,0,0,0,0,0,0,0,0,0,0,0,0,0,0,0,0,0,0,0,0,0],"sum_hessian":[7.5530865E2,5.60091E2,1.9521762E2,1.1646081E2,4.4363022E2,4.463329E1,1.5058434E2,9.372351E1,2.2737299E1,3.6262027E2,8.100994E1,3.5902744E1,8.730548E0,8.470437E1,6.587997E1,9.085394E1,2.8695672E0,2.8591757E2,7.670269E1,6.883381E0,7.4126564E1,3.8340406E0,4.8965073E0,2.5481152E1,5.922322E1,1.8824158E1,4.705581E1],"tree_param":{"num_deleted":"0","num_feature":"6","num_nodes":"27","size_leaf_vector":"1"}},{"base_weights":[-1.7120562E-3,1.3211551E-1,-1.0095754E-2,4.780706E-2,3.406493E-2,-1.7365156E-2,1.4913271E-1,-0E0,5.0826978E-2,3.063124E-2,-2.4425143E-2,2.3744662E-1,-1.1514468E-2,-1.2575651E-3,8.680699E-3,-3.8221644E-3,1.4800375E-3,-0E0,3.0171473E-2],"categories":[],"categories_nodes":[],"categories_segments":[],"categories_sizes":[],"default_left":[0,0,0,0,0,0,0,0,0,0,0,0,0,0,0,0,0,0,0],"id":35,"left_children":[1,3,5,7,-1,9,11,-1,-1,13,15,17,-1,-1,-1,-1,-1,-1,-1],"loss_changes":[8.0247664E-1,5.253593E-1,7.7886724E-1,5.6749433E-1,0E0,2.3474275E-1,7.6224095E-1,0E0,0E0,2.3501882E-1,3.4759793E-1,3.4617114E-1,0E0,0E0,0E0,0E0,0E0,0E0,0E0],"parents":[2147483647,0,0,1,1,2,2,3,3,5,5,6,6,9,9,10,10,11,11],"right_children":[2,4,6,8,-1,10,12,-1,-1,14,16,18,-1,-1,-1,-1,-1,-1,-1],"split_conditions":[-1.4263648E0,1E0,1E0,1E0,3.406493E-2,-1.0372165E0,1.4922465E0,-0E0,5.0826978E-2,-1.2317907E0,1.1030983E0,-6.480684E-1,-1.1514468E-2,-1.2575651E-3,8.680699E-3,-3.8221644E-3,1.4800375E-3,-0E0,3.0171473E-2],"split_indices":[0,1,4,2,0,0,0,0,0,0,0,0,0,0,0,0,0,0,0],"split_type":[0,0,0,0,0,0,0,0,0,0,0,0,0,0,0,0,0,0,0],"sum_hessian":[7.674276E2,4.0855755E1,7.265719E2,3.1676258E1,9.179499E0,6.987044E2,2.78675E1,3.019046E1,1.4857979E0,8.00865E1,6.1861786E2,2.2381668E1,5.485833E0,4.067631E1,3.9410187E1,4.671005E2,1.5151738E2,5.097387E0,1.728428E1],"tree_param":{"num_deleted":"0","num_feature":"6","num_nodes":"19","size_leaf_vector":"1"}},{"base_weights":[-6.217928E-3,-0E0,-1.7312677E-1,-5.716206E-2,2.1901678E-2,-1.9972594E-1,-0E0,-8.853132E-2,1.37414215E-2,1.4669375E-2,9.707894E-2,-0E0,-2.1289144E-2,9.789483E-3,-1.3757952E-2,-9.368974E-3,9.893856E-3,2.7253898E-3,-5.72646E-3,1.5733432E-2,-5.009806E-3],"categories":[],"categories_nodes":[],"categories_segments":[],"categories_sizes":[],"default_left":[0,0,0,0,0,0,0,0,0,0,0,0,0,0,0,0,0,0,0,0,0],"id":36,"left_children":[1,3,5,7,9,11,-1,13,15,17,19,-1,-1,-1,-1,-1,-1,-1,-1,-1,-1],"loss_changes":[8.289639E-1,9.1040003E-1,1.2324089E-1,4.8417032E-1,2.3268858E-1,7.4487984E-2,0E0,1.3491457E0,5.3745365E-1,4.3356228E-1,4.2121315E-1,0E0,0E0,0E0,0E0,0E0,0E0,0E0,0E0,0E0,0E0],"parents":[2147483647,0,0,1,1,2,2,3,3,4,4,5,5,7,7,8,8,9,9,10,10],"right_children":[2,4,6,8,10,12,-1,14,16,18,20,-1,-1,-1,-1,-1,-1,-1,-1,-1,-1],"split_conditions":[1E0,-6.480684E-1,1.6868205E0,1E0,1.6868205E0,-1.4263648E0,-0E0,-1.4263648E0,-1.2317907E0,1.2976724E0,1E0,-0E0,-2.1289144E-2,9.789483E-3,-1.3757952E-2,-9.368974E-3,9.893856E-3,2.7253898E-3,-5.72646E-3,1.5733432E-2,-5.009806E-3],"split_indices":[4,0,0,5,0,0,0,0,0,0,5,0,0,0,0,0,0,0,0,0,0],"split_type":[0,0,0,0,0,0,0,0,0,0,0,0,0,0,0,0,0,0,0,0,0],"sum_hessian":[7.5931537E2,7.316775E2,2.7637877E1,1.9932408E2,5.323534E2,2.3607403E1,4.0304728E0,1.4290361E2,5.6420483E1,4.9279132E2,3.9562088E1,1.3058972E0,2.2301506E1,2.743533E1,1.1546828E2,2.2314327E1,3.4106155E1,4.2586084E2,6.693048E1,3.043147E1,9.130616E0],"tree_param":{"num_deleted":"0","num_feature":"6","num_nodes":"21","size_leaf_vector":"1"}},{"base_weights":[-6.7384155E-3,-4.089392E-3,-5.1537137E-3,-5.143842E-3,4.535516E-3,-8.531609E-3,5.9641264E-3,8.537569E-3,-2.7554983E-2,-4.893012E-4,-9.549922E-3,-0E0,1.66228E-2],"categories":[],"categories_nodes":[],"categories_segments":[],"categories_sizes":[],"default_left":[0,0,0,0,0,0,0,0,0,0,0,0,0],"id":37,"left_children":[1,3,-1,5,7,9,11,-1,-1,-1,-1,-1,-1],"loss_changes":[6.1802596E-2,6.9327736E-3,0E0,2.7649943E-2,5.623238E-1,1.2995072E-1,1.5300725E-1,0E0,0E0,0E0,0E0,0E0,0E0],"parents":[2147483647,0,0,1,1,3,3,4,4,5,5,6,6],"right_children":[2,4,-1,6,8,10,12,-1,-1,-1,-1,-1,-1],"split_conditions":[1E0,1E0,-5.1537137E-3,1E0,1E0,1E0,1E0,8.537569E-3,-2.7554983E-2,-4.893012E-4,-9.549922E-3,-0E0,1.66228E-2],"split_indices":[4,3,0,1,1,2,2,0,0,0,0,0,0],"split_type":[0,0,0,0,0,0,0,0,0,0,0,0,0],"sum_hessian":[7.559263E2,7.2529095E2,3.0635357E1,6.982951E2,2.6995825E1,5.6976874E2,1.285264E2,2.2874094E1,4.1217294E0,5.5342E2,1.6348747E1,1.2382228E2,4.7041135E0],"tree_param":{"num_deleted":"0","num_feature":"6","num_nodes":"13","size_leaf_vector":"1"}},{"base_weights":[6.4928085E-3,-0E0,1.6863291E-1,-5.8898972E-3,1.3213614E-1,2.366246E-1,-1.0348662E-2,-2.1143017E-2,2.5346836E-2,-0E0,6.331816E-2,-1.4085569E-2,3.1853467E-1,-4.4029678E-4,-5.3436216E-3,6.252953E-3,-3.2442354E-3,2.6922641E-2,-5.8990805E-3,-0E0,-9.235329E-3,1.5228658E-2,4.64308E-2],"categories":[],"categories_nodes":[],"categories_segments":[],"categories_sizes":[],"default_left":[0,0,0,0,0,0,0,0,0,0,0,0,0,0,0,0,0,0,0,0,0,0,0],"id":38,"left_children":[1,3,5,7,9,11,-1,13,15,17,-1,19,21,-1,-1,-1,-1,-1,-1,-1,-1,-1,-1],"loss_changes":[7.943493E-1,5.619783E-1,6.2850225E-1,3.290978E-1,1.7877033E0,6.7042243E-1,0E0,2.2903346E-1,4.8421136E-1,5.1258314E-1,0E0,2.7136903E-2,1.15400076E-1,0E0,0E0,0E0,0E0,0E0,0E0,0E0,0E0,0E0,0E0],"parents":[2147483647,0,0,1,1,2,2,3,3,4,4,5,5,7,7,8,8,9,9,11,11,12,12],"right_children":[2,4,6,8,10,12,-1,14,16,18,-1,20,22,-1,-1,-1,-1,-1,-1,-1,-1,-1,-1],"split_conditions":[1E0,1E0,1.6868205E0,7.1395016E-1,1E0,-6.480684E-1,-1.0348662E-2,-6.434618E-2,1.4922465E0,-6.480684E-1,6.331816E-2,-1.2317907E0,1.1030983E0,-4.4029678E-4,-5.3436216E-3,6.252953E-3,-3.2442354E-3,2.6922641E-2,-5.8990805E-3,-0E0,-9.235329E-3,1.5228658E-2,4.64308E-2],"split_indices":[4,3,0,0,1,0,0,0,0,0,0,0,0,0,0,0,0,0,0,0,0,0,0],"split_type":[0,0,0,0,0,0,0,0,0,0,0,0,0,0,0,0,0,0,0,0,0,0,0],"sum_hessian":[7.508606E2,7.228124E2,2.8048191E1,6.9300464E2,2.9807785E1,2.4015543E1,4.032648E0,4.7660495E2,2.1639967E2,2.5007097E1,4.8006873E0,4.6146894E0,1.9400852E1,3.248366E2,1.5176834E2,1.3689128E2,7.95084E1,5.0664196E0,1.9940678E1,2.3024077E0,2.3122814E0,1.1621595E1,7.779258E0],"tree_param":{"num_deleted":"0","num_feature":"6","num_nodes":"23","size_leaf_vector":"1"}},{"base_weights":[-3.0790176E-3,-2.724638E-4,-5.82068E-2,-8.419181E-3,1.975623E-2,-0E0,-2.4464615E-2,-1.1006406E-2,4.354361E-3,2.7159452E-3,-8.677334E-3,-1.373694E-3,2.9119526E-3],"categories":[],"categories_nodes":[],"categories_segments":[],"categories_sizes":[],"default_left":[0,0,0,0,0,0,0,0,0,0,0,0,0],"id":39,"left_children":[1,3,5,7,9,-1,-1,11,-1,-1,-1,-1,-1],"loss_changes":[8.433463E-2,1.10059865E-1,3.4504086E-1,5.437514E-2,1.2029392E-1,0E0,0E0,4.8270922E-2,0E0,0E0,0E0,0E0,0E0],"parents":[2147483647,0,0,1,1,2,2,3,3,4,4,7,7],"right_children":[2,4,6,8,10,-1,-1,12,-1,-1,-1,-1,-1],"split_conditions":[1E0,1E0,1E0,1E0,1E0,-0E0,-2.4464615E-2,1E0,4.354361E-3,2.7159452E-3,-8.677334E-3,-1.373694E-3,2.9119526E-3],"split_indices":[4,5,5,2,3,0,0,3,0,0,0,0,0],"split_type":[0,0,0,0,0,0,0,0,0,0,0,0,0],"sum_hessian":[7.3317004E2,7.072393E2,2.5930754E1,5.209042E2,1.8633513E2,1.9641356E1,6.289398E0,5.0611517E2,1.478899E1,1.7931248E2,7.0226545E0,4.861514E2,1.9963753E1],"tree_param":{"num_deleted":"0","num_feature":"6","num_nodes":"13","size_leaf_vector":"1"}},{"base_weights":[1.2107087E-2,-1.3329225E-2,2.095582E-2,5.3156987E-2,1.4202947E-3,3.288913E-2,1.3526618E-1,-1.1489275E-2,1.6734796E-2,3.6104259E-3,-2.4315427E-4,1.4845269E-2,-0E0,9.87192E-3,4.2200342E-4],"categories":[],"categories_nodes":[],"categories_segments":[],"categories_sizes":[],"default_left":[0,0,0,0,0,0,0,0,0,0,0,0,0,0,0],"id":40,"left_children":[1,-1,3,5,7,9,11,-1,13,-1,-1,-1,-1,-1,-1],"loss_changes":[9.074219E-1,0E0,4.1803882E-1,3.4026533E-1,7.5687253E-1,4.1096106E-2,1.3227314E-1,0E0,3.6214462E-1,0E0,0E0,0E0,0E0,0E0,0E0],"parents":[2147483647,0,0,2,2,3,3,4,4,5,5,6,6,8,8],"right_children":[2,-1,4,6,8,10,12,-1,14,-1,-1,-1,-1,-1,-1],"split_conditions":[-1.4263648E0,-1.3329225E-2,-2.5892025E-1,-4.5349434E-1,-6.434618E-2,1E0,1E0,-1.1489275E-2,1.302279E-1,3.6104259E-3,-2.4315427E-4,1.4845269E-2,-0E0,9.87192E-3,4.2200342E-4],"split_indices":[0,0,0,0,0,2,4,0,0,0,0,0,0,0,0],"split_type":[0,0,0,0,0,0,0,0,0,0,0,0,0,0,0],"sum_hessian":[7.4577216E2,3.8734325E1,7.070378E2,2.5665988E2,4.5037793E2,2.1185544E2,4.4804447E1,4.7845116E1,4.025328E2,2.0713448E2,4.720965E0,4.3030567E1,1.7738799E0,4.710516E1,3.5542764E2],"tree_param":{"num_deleted":"0","num_feature":"6","num_nodes":"15","size_leaf_vector":"1"}},{"base_weights":[2.2876326E-2,1.5271347E-2,1.6772582E-1,9.781224E-3,1.5160021E-2,7.164436E-3,3.585148E-2,2.4394722E-4,3.2220248E-2,1.6785739E-4,-9.957126E-4,1.574262E-3,2.8597115E-2],"categories":[],"categories_nodes":[],"categories_segments":[],"categories_sizes":[],"default_left":[0,0,0,0,0,0,0,0,0,0,0,0,0],"id":41,"left_children":[1,3,5,7,-1,-1,-1,9,11,-1,-1,-1,-1],"loss_changes":[7.295053E-1,4.527594E-1,3.8092792E-1,1.3177511E-1,0E0,0E0,0E0,3.22396E-3,6.417628E-1,0E0,0E0,0E0,0E0],"parents":[2147483647,0,0,1,1,2,2,3,3,7,7,8,8],"right_children":[2,4,6,8,-1,-1,-1,10,12,-1,-1,-1,-1],"split_conditions":[1E0,1E0,1E0,1E0,1.5160021E-2,7.164436E-3,3.585148E-2,1E0,1E0,1.6785739E-4,-9.957126E-4,1.574262E-3,2.8597115E-2],"split_indices":[4,2,5,5,0,0,0,3,3,0,0,0,0],"split_type":[0,0,0,0,0,0,0,0,0,0,0,0,0],"sum_hessian":[7.4662366E2,7.1370935E2,3.2914326E1,6.90636E2,2.307337E1,2.4548101E1,8.366226E0,5.0099228E2,1.8964368E2,4.8292593E2,1.8066328E1,1.8092741E2,8.716269E0],"tree_param":{"num_deleted":"0","num_feature":"6","num_nodes":"13","size_leaf_vector":"1"}},{"base_weights":[-5.122701E-3,-1.8293111E-4,-1.0992474E-2,2.0557472E-3,-7.1909577E-3,-3.73382E-3,2.0039962E-3,-0E0,-1.1671733E-2],"categories":[],"categories_nodes":[],"categories_segments":[],"categories_sizes":[],"default_left":[0,0,0,0,0,0,0,0,0],"id":42,"left_children":[1,3,-1,5,-1,7,-1,-1,-1],"loss_changes":[3.3445743E-1,1.5134858E-1,0E0,8.073913E-2,0E0,1.7657791E-1,0E0,0E0,0E0],"parents":[2147483647,0,0,1,1,3,3,5,5],"right_children":[2,4,-1,6,-1,8,-1,-1,-1],"split_conditions":[1E0,1E0,-1.0992474E-2,1E0,-7.1909577E-3,1E0,2.0039962E-3,-0E0,-1.1671733E-2],"split_indices":[4,3,0,5,0,2,0,0,0],"split_type":[0,0,0,0,0,0,0,0,0],"sum_hessian":[7.514298E2,7.231187E2,2.8311047E1,6.954144E2,2.7704325E1,5.056298E2,1.8978462E2,4.931495E2,1.2480284E1],"tree_param":{"num_deleted":"0","num_feature":"6","num_nodes":"9","size_leaf_vector":"1"}},{"base_weights":[-8.171542E-3,1.9531492E-3,-5.6402482E-2,1.3166689E-2,-1.451917E-1,-7.839263E-2,3.222008E-2,-3.7903E-4,2.1396697E-1,-1.9391289E-2,9.6213055E-4,5.260715E-2,-1.2060193E-1,1.9315251E-3,-3.3152406E-3,2.6008576E-2,-0E0,1.2472569E-2,-7.375275E-3,-3.301028E-2,-9.122397E-3],"categories":[],"categories_nodes":[],"categories_segments":[],"categories_sizes":[],"default_left":[0,0,0,0,0,0,0,0,0,0,0,0,0,0,0,0,0,0,0,0,0],"id":43,"left_children":[1,3,5,7,9,11,-1,13,15,-1,-1,17,19,-1,-1,-1,-1,-1,-1,-1,-1],"loss_changes":[3.9891112E-1,9.6105504E-1,1.074105E0,1.68822E0,4.026637E-1,7.865619E-1,0E0,3.582342E-1,4.0470803E-1,0E0,0E0,3.14421E-1,4.0705597E-1,0E0,0E0,0E0,0E0,0E0,0E0,0E0,0E0],"parents":[2147483647,0,0,1,1,2,2,3,3,4,4,5,5,7,7,8,8,11,11,12,12],"right_children":[2,4,6,8,10,12,-1,14,16,-1,-1,18,20,-1,-1,-1,-1,-1,-1,-1,-1],"split_conditions":[1E0,1.6868205E0,1.6868205E0,1.4922465E0,1E0,-8.426425E-1,3.222008E-2,1.302279E-1,1E0,-1.9391289E-2,9.6213055E-4,1E0,-6.480684E-1,1.9315251E-3,-3.3152406E-3,2.6008576E-2,-0E0,1.2472569E-2,-7.375275E-3,-3.301028E-2,-9.122397E-3],"split_indices":[1,0,0,0,5,0,0,0,5,0,0,5,0,0,0,0,0,0,0,0,0],"split_type":[0,0,0,0,0,0,0,0,0,0,0,0,0,0,0,0,0,0,0,0,0],"sum_hessian":[7.599226E2,6.203011E2,1.3962155E2,5.803803E2,3.9920795E1,1.3395474E2,5.6668143E0,5.423052E2,3.807511E1,3.2629204E1,7.291591E0,2.9696695E1,1.0425804E2,3.294721E2,2.1283307E2,3.1428885E1,6.646225E0,2.143359E1,8.263106E0,9.469925E0,9.478812E1],"tree_param":{"num_deleted":"0","num_feature":"6","num_nodes":"21","size_leaf_vector":"1"}},{"base_weights":[1.7269524E-2,4.8396428E-4,6.098192E-2,-6.872839E-2,9.8465625E-3,3.1277105E-2,3.812448E-2,-7.9123475E-2,-0E0,1.4417861E-1,3.251985E-6,1.7826784E-3,2.0805308E-1,-8.2334755E-3,-0E0,8.607338E-3,5.5352833E-2,8.1525603E-4,-7.6267333E-3,1.6712238E-3,-3.239184E-2,2.3649765E-2,-0E0],"categories":[],"categories_nodes":[],"categories_segments":[],"categories_sizes":[],"default_left":[0,0,0,0,0,0,0,0,0,0,0,0,0,0,0,0,0,0,0,0,0,0,0],"id":44,"left_children":[1,3,5,7,9,-1,11,13,-1,15,17,19,21,-1,-1,-1,-1,-1,-1,-1,-1,-1,-1],"loss_changes":[5.1341707E-1,3.244974E-1,9.4931567E-1,7.8342944E-2,5.724251E-1,0E0,1.031168E0,1.3048351E-2,0E0,3.4160745E-1,2.516212E-1,6.056854E-1,2.7658403E-1,0E0,0E0,0E0,0E0,0E0,0E0,0E0,0E0,0E0,0E0],"parents":[2147483647,0,0,1,1,2,2,3,3,4,4,6,6,7,7,9,9,10,10,11,11,12,12],"right_children":[2,4,6,8,10,-1,12,14,-1,16,18,20,22,-1,-1,-1,-1,-1,-1,-1,-1,-1,-1],"split_conditions":[1E0,-1.2317907E0,-1.4263648E0,1E0,-1.0372165E0,3.1277105E-2,1.2976724E0,1E0,-0E0,1E0,1.6868205E0,1E0,1E0,-8.2334755E-3,-0E0,8.607338E-3,5.5352833E-2,8.1525603E-4,-7.6267333E-3,1.6712238E-3,-3.239184E-2,2.3649765E-2,-0E0],"split_indices":[5,0,0,3,0,0,0,2,0,3,0,2,2,0,0,0,0,0,0,0,0,0,0],"split_type":[0,0,0,0,0,0,0,0,0,0,0,0,0,0,0,0,0,0,0,0,0,0,0],"sum_hessian":[7.406547E2,5.4415045E2,1.9650427E2,5.7719364E1,4.864311E2,1.3477945E1,1.8302632E2,5.5817802E1,1.9015627E0,2.8810448E1,4.5762064E2,1.5403625E2,2.8990078E1,5.339695E1,2.4208531E0,2.7358727E1,1.4517229E0,4.201748E2,3.7445843E1,1.4965994E2,4.3763084E0,2.7154926E1,1.8351529E0],"tree_param":{"num_deleted":"0","num_feature":"6","num_nodes":"23","size_leaf_vector":"1"}},{"base_weights":[8.799192E-3,1.776287E-2,-2.1023357E-1,9.1183735E-3,1.622151E-1,-2.9641224E-2,1.7349463E-2,2.8062124E-2,-2.0025501E-2,1.9352738E-2,-1.8729178E-2,1.2163769E-3,1.4740615E-2,-1.4623984E-2,4.227222E-4],"categories":[],"categories_nodes":[],"categories_segments":[],"categories_sizes":[],"default_left":[0,0,0,0,0,0,0,0,0,0,0,0,0,0,0],"id":45,"left_children":[1,3,5,7,9,-1,-1,11,13,-1,-1,-1,-1,-1,-1],"loss_changes":[1.3801228E0,8.1653446E-1,1.0181049E0,3.8395202E-1,4.5016348E-1,0E0,0E0,7.2910684E-1,8.7019944E-1,0E0,0E0,0E0,0E0,0E0,0E0],"parents":[2147483647,0,0,1,1,2,2,3,3,4,4,7,7,8,8],"right_children":[2,4,6,8,10,-1,-1,12,14,-1,-1,-1,-1,-1,-1],"split_conditions":[1E0,1.6868205E0,1.6868205E0,3.2480198E-1,1E0,-2.9641224E-2,1.7349463E-2,1.302279E-1,5.1937604E-1,1.9352738E-2,-1.8729178E-2,1.2163769E-3,1.4740615E-2,-1.4623984E-2,4.227222E-4],"split_indices":[4,0,0,0,3,0,0,0,0,0,0,0,0,0,0],"split_type":[0,0,0,0,0,0,0,0,0,0,0,0,0,0,0],"sum_hessian":[7.4906085E2,7.226873E2,2.6373524E1,6.861503E2,3.653701E1,2.2786602E1,3.5869212E0,4.2626685E2,2.5988345E2,3.525536E1,1.281651E0,3.8082672E2,4.5440147E1,4.4401043E1,2.154824E2],"tree_param":{"num_deleted":"0","num_feature":"6","num_nodes":"15","size_leaf_vector":"1"}},{"base_weights":[-1.2137144E-3,7.1600904E-3,-2.7915103E-2,9.58314E-3,-4.0749323E-2,-1.2766387E-2,-7.0792995E-2,1.5083693E-2,-8.837663E-4,-1.4983283E-2,1.982685E-2,-5.82621E-4,-9.183281E-3,-7.4719302E-3,-0E0,1.1182821E-3,7.8068483E-3],"categories":[],"categories_nodes":[],"categories_segments":[],"categories_sizes":[],"default_left":[0,0,0,0,0,0,0,0,0,0,0,0,0,0,0,0,0],"id":46,"left_children":[1,3,5,7,9,11,13,15,-1,-1,-1,-1,-1,-1,-1,-1,-1],"loss_changes":[1.7981605E-1,5.013474E-2,8.408326E-2,5.8619864E-2,4.577891E-1,3.5167534E-2,1.7006844E-2,6.31058E-2,0E0,0E0,0E0,0E0,0E0,0E0,0E0,0E0,0E0],"parents":[2147483647,0,0,1,1,2,2,3,3,4,4,5,5,6,6,7,7],"right_children":[2,4,6,8,10,12,14,16,-1,-1,-1,-1,-1,-1,-1,-1,-1],"split_conditions":[1E0,1E0,1E0,1E0,1E0,1E0,1E0,1E0,-8.837663E-4,-1.4983283E-2,1.982685E-2,-5.82621E-4,-9.183281E-3,-7.4719302E-3,-0E0,1.1182821E-3,7.8068483E-3],"split_indices":[5,2,1,1,1,2,4,4,0,0,0,0,0,0,0,0,0],"split_type":[0,0,0,0,0,0,0,0,0,0,0,0,0,0,0,0,0],"sum_hessian":[7.559076E2,5.6174524E2,1.9416232E2,5.4539777E2,1.6347504E1,1.5304901E2,4.1113308E1,4.4102856E2,1.0436919E2,1.2917301E1,3.4302025E0,1.4749951E2,5.549511E0,3.9849903E1,1.2634064E0,4.2389145E2,1.713714E1],"tree_param":{"num_deleted":"0","num_feature":"6","num_nodes":"17","size_leaf_vector":"1"}},{"base_weights":[6.9407816E-3,-1.0487402E-3,1.8439463E-1,-5.0857603E-3,7.465408E-2,2.0205006E-2,-0E0,-9.01581E-3,8.0724694E-2,-0E0,3.20419E-2,-5.554489E-4,-1.9372551E-3,2.0060518E-3,1.6778542E-2],"categories":[],"categories_nodes":[],"categories_segments":[],"categories_sizes":[],"default_left":[0,0,0,0,0,0,0,0,0,0,0,0,0,0,0],"id":47,"left_children":[1,3,5,7,9,-1,-1,11,13,-1,-1,-1,-1,-1,-1],"loss_changes":[1.1566446E0,1.8470961E-1,6.0484648E-2,1.9685109E-1,4.8415107E-1,0E0,0E0,1.1239823E-2,3.2916173E-2,0E0,0E0,0E0,0E0,0E0,0E0],"parents":[2147483647,0,0,1,1,2,2,3,3,4,4,7,7,8,8],"right_children":[2,4,6,8,10,-1,-1,12,14,-1,-1,-1,-1,-1,-1],"split_conditions":[1E0,1E0,1E0,1E0,1E0,2.0205006E-2,-0E0,1E0,1E0,-0E0,3.20419E-2,-5.554489E-4,-1.9372551E-3,2.0060518E-3,1.6778542E-2],"split_indices":[4,3,1,2,1,0,0,1,1,0,0,0,0,0,0],"split_type":[0,0,0,0,0,0,0,0,0,0,0,0,0,0,0],"sum_hessian":[7.500225E2,7.1596405E2,3.4058464E1,6.868727E2,2.9091408E1,2.9680824E1,4.3776402E0,6.632195E2,2.3653189E1,2.3742249E1,5.3491573E0,5.3442395E2,1.2879549E2,1.8049664E1,5.6035237E0],"tree_param":{"num_deleted":"0","num_feature":"6","num_nodes":"15","size_leaf_vector":"1"}},{"base_weights":[-1.63036E-2,-2.2542996E-2,6.713245E-2,-8.822741E-3,-1.2974198E-1,1.03145495E-1,-3.2226756E-2,-3.2111816E-3,-1.6155173E-1,-1.5040916E-2,8.490144E-3,1.423985E-2,-5.180258E-3,-1.6575832E-3,4.7086845E-3,-4.788235E-4,-4.897353E-2],"categories":[],"categories_nodes":[],"categories_segments":[],"categories_sizes":[],"default_left":[0,0,0,0,0,0,0,0,0,0,0,0,0,0,0,0,0],"id":48,"left_children":[1,3,5,7,9,11,-1,13,15,-1,-1,-1,-1,-1,-1,-1,-1],"loss_changes":[3.7527755E-1,9.799845E-1,5.9132963E-1,4.6419713E-1,3.863349E-1,3.2948658E-1,0E0,4.0223542E-1,7.5078464E-1,0E0,0E0,0E0,0E0,0E0,0E0,0E0,0E0],"parents":[2147483647,0,0,1,1,2,2,3,3,4,4,5,5,7,7,8,8],"right_children":[2,4,6,8,10,12,-1,14,16,-1,-1,-1,-1,-1,-1,-1,-1],"split_conditions":[1.6868205E0,1.2976724E0,1E0,1E0,1E0,1E0,-3.2226756E-2,1E0,1E0,-1.5040916E-2,8.490144E-3,1.423985E-2,-5.180258E-3,-1.6575832E-3,4.7086845E-3,-4.788235E-4,-4.897353E-2],"split_indices":[0,0,3,2,3,1,0,1,1,0,0,0,0,0,0,0,0],"split_type":[0,0,0,0,0,0,0,0,0,0,0,0,0,0,0,0,0],"sum_hessian":[7.5978766E2,7.1317816E2,4.660945E1,6.37351E2,7.582718E1,4.4511974E1,2.097476E0,6.18906E2,1.8445011E1,7.1565155E1,4.262025E0,3.8154236E1,6.3577394E0,4.973632E2,1.2154279E2,1.42001505E1,4.24486E0],"tree_param":{"num_deleted":"0","num_feature":"6","num_nodes":"17","size_leaf_vector":"1"}},{"base_weights":[-1.3653047E-2,1.0453361E-3,-4.140492E-2,-1.1079932E-2,1.2782821E-1,-7.586866E-2,2.5803452E-2,-4.432112E-3,-2.0765448E-1,1.6099761E-1,-0E0,-8.110781E-2,-0E0,4.5668773E-2,-3.6108404E-2,2.0675461E-3,-4.6342365E-3,-3.7090197E-2,1.325048E-2,1.7684693E-2,-0E0,-4.061279E-3,-1.3326709E-2,-1.2579198E-2,4.2365626E-2,9.636345E-3,-0E0],"categories":[],"categories_nodes":[],"categories_segments":[],"categories_sizes":[],"default_left":[0,0,0,0,0,0,0,0,0,0,0,0,0,0,0,0,0,0,0,0,0,0,0,0,0,0,0],"id":49,"left_children":[1,3,5,7,9,11,13,15,17,19,-1,21,23,25,-1,-1,-1,-1,-1,-1,-1,-1,-1,-1,-1,-1,-1],"loss_changes":[3.300354E-1,8.064925E-1,6.634616E-1,4.688769E-1,1.96661E-1,1.1395991E-1,5.425911E-1,4.659702E-1,8.309561E-1,1.4221632E-1,0E0,2.89492E-1,5.738417E-1,2.3165753E-1,0E0,0E0,0E0,0E0,0E0,0E0,0E0,0E0,0E0,0E0,0E0,0E0,0E0],"parents":[2147483647,0,0,1,1,2,2,3,3,4,4,5,5,6,6,7,7,8,8,9,9,11,11,12,12,13,13],"right_children":[2,4,6,8,10,12,14,16,18,20,-1,22,24,26,-1,-1,-1,-1,-1,-1,-1,-1,-1,-1,-1,-1,-1],"split_conditions":[5.1937604E-1,3.2480198E-1,1.4922465E0,1E0,1E0,1E0,1E0,-4.5349434E-1,1E0,1E0,-0E0,1.1030983E0,1.2976724E0,1.6868205E0,-3.6108404E-2,2.0675461E-3,-4.6342365E-3,-3.7090197E-2,1.325048E-2,1.7684693E-2,-0E0,-4.061279E-3,-1.3326709E-2,-1.2579198E-2,4.2365626E-2,9.636345E-3,-0E0],"split_indices":[0,0,0,2,1,2,2,0,1,4,0,0,0,0,0,0,0,0,0,0,0,0,0,0,0,0,0],"split_type":[0,0,0,0,0,0,0,0,0,0,0,0,0,0,0,0,0,0,0,0,0,0,0,0,0,0,0],"sum_hessian":[7.585156E2,4.8473056E2,2.7378506E2,4.3965195E2,4.50786E1,1.858129E2,8.797217E1,4.2871948E2,1.0932459E1,3.5635002E1,9.443598E0,1.7978119E2,6.0317063E0,8.574384E1,2.2283227E0,2.6096008E2,1.6775941E2,8.319385E0,2.6130743E0,3.390999E1,1.7250156E0,1.0760461E2,7.217659E1,4.301973E0,1.7297335E0,4.3430058E1,4.2313786E1],"tree_param":{"num_deleted":"0","num_feature":"6","num_nodes":"27","size_leaf_vector":"1"}},{"base_weights":[4.6681275E-4,4.543896E-2,-7.284488E-3,1.8169008E-2,5.2949686E-2,-3.264065E-2,1.5146585E-2,-0E0,3.4309232E-1,-1.3606637E-2,-7.6795965E-3,1.3432479E-1,-4.760102E-3,1.1412035E-3,-1.6794096E-3,7.431838E-2,-2.5826273E-2,-2.7758405E-3,2.891915E-3,1.5751177E-2,-1.995316E-2,2.324851E-3,-1.8638124E-3],"categories":[],"categories_nodes":[],"categories_segments":[],"categories_sizes":[],"default_left":[0,0,0,0,0,0,0,0,0,0,0,0,0,0,0,0,0,0,0,0,0,0,0],"id":50,"left_children":[1,3,5,7,-1,9,11,13,15,17,-1,19,21,-1,-1,-1,-1,-1,-1,-1,-1,-1,-1],"loss_changes":[2.804434E-1,1.2967803E0,3.676284E-1,5.9510416E-1,0E0,2.113961E-1,8.354254E-1,2.0111915E-2,1.728579E0,1.3463159E-1,0E0,3.9811242E-1,1.0520797E-1,0E0,0E0,0E0,0E0,0E0,0E0,0E0,0E0,0E0,0E0],"parents":[2147483647,0,0,1,1,2,2,3,3,5,5,6,6,7,7,8,8,9,9,11,11,12,12],"right_children":[2,4,6,8,-1,10,12,14,16,18,-1,20,22,-1,-1,-1,-1,-1,-1,-1,-1,-1,-1],"split_conditions":[-1.0372165E0,1E0,3.2480198E-1,1E0,5.2949686E-2,-6.434618E-2,5.1937604E-1,-1.2317907E0,1E0,-2.5892025E-1,-7.6795965E-3,1E0,9.085242E-1,1.1412035E-3,-1.6794096E-3,7.431838E-2,-2.5826273E-2,-2.7758405E-3,2.891915E-3,1.5751177E-2,-1.995316E-2,2.324851E-3,-1.8638124E-3],"split_indices":[0,3,0,2,0,0,0,0,1,0,0,2,0,0,0,0,0,0,0,0,0,0,0],"split_type":[0,0,0,0,0,0,0,0,0,0,0,0,0,0,0,0,0,0,0,0,0,0,0],"sum_hessian":[7.478258E2,1.18712555E2,6.291132E2,1.1434147E2,4.3710876E0,3.055518E2,3.2356146E2,1.09962425E2,4.379044E0,2.2233972E2,8.3212074E1,4.9082386E1,2.7447906E2,7.453107E1,3.543136E1,2.9872103E0,1.3918335E0,1.759063E2,4.6433422E1,4.778919E1,1.2931973E0,7.8780655E1,1.9569841E2],"tree_param":{"num_deleted":"0","num_feature":"6","num_nodes":"23","size_leaf_vector":"1"}},{"base_weights":[-3.459992E-3,1.0764586E-3,-1.5685962E-1,-3.1815793E-2,1.4143148E-2,-2.8752336E-2,-5.995389E-2,-4.8529457E-2,2.4816426E-2,1.6725667E-2,-0E0,2.221178E-1,-1.5350112E-1,-6.263019E-4,-1.729105E-2,-7.3078163E-3,3.1381547E-2,-8.231068E-3,7.436451E-4,2.8046219E-2,-0E0,-2.0309089E-2,-0E0],"categories":[],"categories_nodes":[],"categories_segments":[],"categories_sizes":[],"default_left":[0,0,0,0,0,0,0,0,0,0,0,0,0,0,0,0,0,0,0,0,0,0,0],"id":51,"left_children":[1,3,5,7,9,-1,11,13,15,-1,17,19,21,-1,-1,-1,-1,-1,-1,-1,-1,-1,-1],"loss_changes":[6.007419E-1,3.04224E-1,1.2236744E-1,1.987925E-1,1.177693E0,0E0,4.6603024E-1,7.4345183E-1,1.2341902E0,0E0,3.1019738E-1,4.9218535E-3,1.01863116E-1,0E0,0E0,0E0,0E0,0E0,0E0,0E0,0E0,0E0,0E0],"parents":[2147483647,0,0,1,1,2,2,3,3,4,4,6,6,7,7,8,8,10,10,11,11,12,12],"right_children":[2,4,6,8,10,-1,12,14,16,-1,18,20,22,-1,-1,-1,-1,-1,-1,-1,-1,-1,-1],"split_conditions":[1E0,-6.480684E-1,-2.5892025E-1,1E0,-4.5349434E-1,-2.8752336E-2,3.2480198E-1,-8.426425E-1,-8.426425E-1,1.6725667E-2,-2.5892025E-1,-6.434618E-2,1.6868205E0,-6.263019E-4,-1.729105E-2,-7.3078163E-3,3.1381547E-2,-8.231068E-3,7.436451E-4,2.8046219E-2,-0E0,-2.0309089E-2,-0E0],"split_indices":[4,0,0,1,0,0,0,0,0,0,0,0,0,0,0,0,0,0,0,0,0,0,0],"split_type":[0,0,0,0,0,0,0,0,0,0,0,0,0,0,0,0,0,0,0,0,0,0,0],"sum_hessian":[7.50098E2,7.263513E2,2.374669E1,1.9522336E2,5.31128E2,7.07728E0,1.666941E1,1.576644E2,3.7558956E1,4.4903244E1,4.8622473E2,2.4780614E0,1.4191349E1,1.2146062E2,3.6203777E1,2.7321264E1,1.0237692E1,4.114417E1,4.4508057E2,1.2440724E0,1.233989E0,1.0148032E1,4.043317E0],"tree_param":{"num_deleted":"0","num_feature":"6","num_nodes":"23","size_leaf_vector":"1"}},{"base_weights":[1.2376773E-2,6.442437E-2,-1.3444466E-3,7.1582064E-2,-7.88899E-2,-2.8141549E-2,1.10401595E-2,7.824779E-2,-1.04912266E-1,-3.4648053E-2,1.5461191E-2,1.2786815E-2,-1.5318806E-2,1.9555729E-2,-9.050773E-3,8.27344E-3,-0E0,-0E0,-1.9513993E-2,1.9499584E-3,-1.2354942E-2,-1.0012398E-2,1.3997986E-4],"categories":[],"categories_nodes":[],"categories_segments":[],"categories_sizes":[],"default_left":[0,0,0,0,0,0,0,0,0,0,0,0,0,0,0,0,0,0,0,0,0,0,0],"id":52,"left_children":[1,3,5,7,9,11,13,15,17,-1,-1,19,-1,-1,21,-1,-1,-1,-1,-1,-1,-1,-1],"loss_changes":[5.7159245E-1,1.7162389E-1,2.0523801E-1,1.846934E-1,4.6310177E-1,1.0961381E0,1.5506202E0,9.306967E-2,4.8613727E-2,0E0,0E0,8.642684E-2,0E0,0E0,3.851008E-1,0E0,0E0,0E0,0E0,0E0,0E0,0E0,0E0],"parents":[2147483647,0,0,1,1,2,2,3,3,4,4,5,5,6,6,7,7,8,8,11,11,14,14],"right_children":[2,4,6,8,10,12,14,16,18,-1,-1,20,-1,-1,22,-1,-1,-1,-1,-1,-1,-1,-1],"split_conditions":[-8.426425E-1,1E0,-6.434618E-2,1E0,-1.2317907E0,-2.5892025E-1,1.302279E-1,1E0,-1.2317907E0,-3.4648053E-2,1.5461191E-2,1E0,-1.5318806E-2,1.9555729E-2,3.2480198E-1,8.27344E-3,-0E0,-0E0,-1.9513993E-2,1.9499584E-3,-1.2354942E-2,-1.0012398E-2,1.3997986E-4],"split_indices":[0,2,0,3,0,0,0,4,0,0,0,2,0,0,0,0,0,0,0,0,0,0,0],"split_type":[0,0,0,0,0,0,0,0,0,0,0,0,0,0,0,0,0,0,0,0,0,0,0],"sum_hessian":[7.55089E2,1.643642E2,5.907248E2,1.6034526E2,4.018933E0,1.9907597E2,3.9164883E2,1.577761E2,2.5691774E0,2.6451197E0,1.3738134E0,1.4764896E2,5.1427025E1,4.0043015E1,3.516058E2,1.546192E2,3.1568758E0,1.2609022E0,1.3082753E0,1.450324E2,2.616563E0,4.0234997E1,3.1137082E2],"tree_param":{"num_deleted":"0","num_feature":"6","num_nodes":"23","size_leaf_vector":"1"}},{"base_weights":[3.2902537E-3,-1.9464748E-2,6.728775E-2,-1.2869427E-2,-1.2564653E-2,2.788302E-2,2.6344952E-1,1.1041229E-1,-3.0512448E-2,1.8266629E-1,-2.6429128E-2,2.7684156E-2,-0E0,1.9639104E-3,2.0159915E-2,-1.6776036E-2,-1.9994439E-3,3.420113E-2,1.0483845E-2,-5.6315446E-3,1.7633986E-3],"categories":[],"categories_nodes":[],"categories_segments":[],"categories_sizes":[],"default_left":[0,0,0,0,0,0,0,0,0,0,0,0,0,0,0,0,0,0,0,0,0],"id":53,"left_children":[1,3,5,-1,7,9,11,13,15,17,19,-1,-1,-1,-1,-1,-1,-1,-1,-1,-1],"loss_changes":[1.1305014E0,3.4599042E-1,1.4321008E0,0E0,1.1273857E0,1.5457444E0,1.2713957E-1,4.1377503E-1,5.733477E-1,3.3245945E-1,1.8796052E-1,0E0,0E0,0E0,0E0,0E0,0E0,0E0,0E0,0E0,0E0],"parents":[2147483647,0,0,1,1,2,2,4,4,5,5,6,6,7,7,8,8,9,9,10,10],"right_children":[2,4,6,-1,8,10,12,14,16,18,20,-1,-1,-1,-1,-1,-1,-1,-1,-1,-1],"split_conditions":[1E0,-1.4263648E0,1.2976724E0,-1.2869427E-2,-1.0372165E0,-8.426425E-1,1E0,-1.2317907E0,-8.426425E-1,-1.4263648E0,5.1937604E-1,2.7684156E-2,-0E0,1.9639104E-3,2.0159915E-2,-1.6776036E-2,-1.9994439E-3,3.420113E-2,1.0483845E-2,-5.6315446E-3,1.7633986E-3],"split_indices":[5,0,0,0,0,0,2,0,0,0,0,0,0,0,0,0,0,0,0,0,0],"split_type":[0,0,0,0,0,0,0,0,0,0,0,0,0,0,0,0,0,0,0,0,0],"sum_hessian":[7.579839E2,5.539161E2,2.040678E2,2.7557823E1,5.263583E2,1.7300569E2,3.1062105E1,6.283145E1,4.635268E2,4.6715305E1,1.2629038E2,2.9694054E1,1.3680513E0,3.484407E1,2.7987383E1,2.8546078E1,4.349807E2,1.2107489E1,3.460782E1,8.1846405E1,4.4443974E1],"tree_param":{"num_deleted":"0","num_feature":"6","num_nodes":"21","size_leaf_vector":"1"}},{"base_weights":[-5.915036E-4,9.952594E-3,-6.373881E-2,-0E0,4.0700283E-2,-1.2061251E-1,1.0970248E-2,1.1944964E-2,-1.24660596E-1,6.0864105E-3,-4.8949583E-3,-1.3849673E-1,1.4329932E-3,3.739993E-2,-2.5423903E-2,-1.8239877E-3,3.053001E-3,-1.2898608E-2,-0E0,8.757883E-4,-2.1669492E-2,-1.1567033E-2,-3.4202587E-2,5.4859663E-3,-5.237078E-3],"categories":[],"categories_nodes":[],"categories_segments":[],"categories_sizes":[],"default_left":[0,0,0,0,0,0,0,0,0,0,0,0,0,0,0,0,0,0,0,0,0,0,0,0,0],"id":54,"left_children":[1,3,5,7,9,11,13,15,17,-1,19,21,-1,23,-1,-1,-1,-1,-1,-1,-1,-1,-1,-1,-1],"loss_changes":[5.3128034E-1,1.9877711E-1,5.45519E-1,7.2973764E-1,1.739214E-1,2.3125494E-1,2.2981831E-1,2.5527635E-1,2.190119E-2,0E0,2.270154E-1,3.1407595E-2,0E0,7.501672E-2,0E0,0E0,0E0,0E0,0E0,0E0,0E0,0E0,0E0,0E0,0E0],"parents":[2147483647,0,0,1,1,2,2,3,3,4,4,5,5,6,6,7,7,8,8,10,10,11,11,13,13],"right_children":[2,4,6,8,10,12,14,16,18,-1,20,22,-1,24,-1,-1,-1,-1,-1,-1,-1,-1,-1,-1,-1],"split_conditions":[1.2976724E0,5.1937604E-1,1.6868205E0,3.2480198E-1,1.1030983E0,1E0,1E0,-8.426425E-1,1E0,6.0864105E-3,1E0,1E0,1.4329932E-3,1E0,-2.5423903E-2,-1.8239877E-3,3.053001E-3,-1.2898608E-2,-0E0,8.757883E-4,-2.1669492E-2,-1.1567033E-2,-3.4202587E-2,5.4859663E-3,-5.237078E-3],"split_indices":[0,0,0,0,0,3,3,0,4,0,4,4,0,4,0,0,0,0,0,0,0,0,0,0,0],"split_type":[0,0,0,0,0,0,0,0,0,0,0,0,0,0,0,0,0,0,0,0,0,0,0,0,0],"sum_hessian":[7.5557733E2,6.414028E2,1.1417461E2,4.8399185E2,1.5741092E2,6.827622E1,4.5898384E1,4.421023E2,4.1889545E1,1.16515045E2,4.089587E1,6.3534763E1,4.741454E0,4.4234444E1,1.6639417E0,1.5822952E2,2.8387277E2,4.03776E1,1.511945E0,3.7102158E1,3.7937107E0,6.0746807E1,2.787958E0,4.202042E1,2.214021E0],"tree_param":{"num_deleted":"0","num_feature":"6","num_nodes":"25","size_leaf_vector":"1"}},{"base_weights":[-1.9021524E-2,-3.4218195E-3,-8.207914E-2,-1.2966337E-2,2.7222363E-3,-0E0,-1.0778125E-1,5.843101E-2,-8.31465E-3,-8.488372E-3,2.3430167E-1,-1.7146297E-1,-3.6787733E-2,1.0342035E-2,-4.006076E-3,-0E0,-8.8168E-3,3.3975292E-2,-0E0,-4.6280297E-3,-2.9873783E-2,1.3596398E-3,-5.6656166E-3],"categories":[],"categories_nodes":[],"categories_segments":[],"categories_sizes":[],"default_left":[0,0,0,0,0,0,0,0,0,0,0,0,0,0,0,0,0,0,0,0,0,0,0],"id":55,"left_children":[1,3,5,-1,7,9,11,13,15,-1,17,19,21,-1,-1,-1,-1,-1,-1,-1,-1,-1,-1],"loss_changes":[6.775346E-1,5.2505004E-1,3.2156336E-1,0E0,3.7247306E-1,6.8911546E-1,3.788303E-1,4.8300025E-1,2.724294E-1,0E0,3.674847E-1,6.590841E-1,7.851762E-2,0E0,0E0,0E0,0E0,0E0,0E0,0E0,0E0,0E0,0E0],"parents":[2147483647,0,0,1,1,2,2,4,4,5,5,6,6,7,7,8,8,10,10,11,11,12,12],"right_children":[2,4,6,-1,8,10,12,14,16,-1,18,20,22,-1,-1,-1,-1,-1,-1,-1,-1,-1,-1],"split_conditions":[1E0,-1.4263648E0,-8.426425E-1,-1.2966337E-2,-8.426425E-1,-1.0372165E0,3.2480198E-1,1E0,1.6868205E0,-8.488372E-3,1E0,-2.5892025E-1,5.1937604E-1,1.0342035E-2,-4.006076E-3,-0E0,-8.8168E-3,3.3975292E-2,-0E0,-4.6280297E-3,-2.9873783E-2,1.3596398E-3,-5.6656166E-3],"split_indices":[1,0,0,0,0,0,0,5,0,0,5,0,0,0,0,0,0,0,0,0,0,0,0],"split_type":[0,0,0,0,0,0,0,0,0,0,0,0,0,0,0,0,0,0,0,0,0,0,0],"sum_hessian":[7.315205E2,5.936437E2,1.3787685E2,3.0395E1,5.6324866E2,3.0656422E1,1.0722043E2,9.991836E1,4.633303E2,2.2140827E1,8.515594E0,5.2062172E1,5.5158253E1,7.20388E1,2.7879557E1,4.2515536E2,3.817493E1,6.708993E0,1.8066007E0,2.8914806E1,2.3147366E1,8.571645E0,4.658661E1],"tree_param":{"num_deleted":"0","num_feature":"6","num_nodes":"23","size_leaf_vector":"1"}},{"base_weights":[9.345811E-4,-2.4303882E-3,1.1511001E-1,-9.401524E-3,1.3903127E-2,1.8788239E-2,-2.0698823E-4,-3.1615607E-3,-3.061805E-2,-0E0,3.0239588E-2,-0E0,-9.491338E-3,-3.994525E-3,6.045447E-3,-2.4620683E-3,9.332447E-3],"categories":[],"categories_nodes":[],"categories_segments":[],"categories_sizes":[],"default_left":[0,0,0,0,0,0,0,0,0,0,0,0,0,0,0,0,0],"id":56,"left_children":[1,3,5,7,9,-1,-1,11,13,15,-1,-1,-1,-1,-1,-1,-1],"loss_changes":[3.4387416E-1,8.020258E-2,3.1227297E-1,5.3018443E-2,7.350811E-1,0E0,0E0,1.6494817E-1,7.867531E-2,4.4462377E-1,0E0,0E0,0E0,0E0,0E0,0E0,0E0],"parents":[2147483647,0,0,1,1,2,2,3,3,4,4,7,7,8,8,9,9],"right_children":[2,4,6,8,10,-1,-1,12,14,16,-1,-1,-1,-1,-1,-1,-1],"split_conditions":[1E0,1E0,1E0,1E0,1E0,1.8788239E-2,-2.0698823E-4,1E0,1E0,1E0,3.0239588E-2,-0E0,-9.491338E-3,-3.994525E-3,6.045447E-3,-2.4620683E-3,9.332447E-3],"split_indices":[2,5,5,1,3,0,0,3,3,1,0,0,0,0,0,0,0],"split_type":[0,0,0,0,0,0,0,0,0,0,0,0,0,0,0,0,0],"sum_hessian":[7.466756E2,7.2199646E2,2.4679136E1,5.277776E2,1.942189E2,1.7484371E1,7.194765E0,4.2692944E2,1.00848114E2,1.8676758E2,7.4513187E0,4.0914447E2,1.7784988E1,9.696859E1,3.8795261E0,1.4701901E2,3.974857E1],"tree_param":{"num_deleted":"0","num_feature":"6","num_nodes":"17","size_leaf_vector":"1"}},{"base_weights":[-6.2324307E-3,-1.6381597E-2,1.945618E-2,-2.595842E-2,1.9081917E-2,3.731841E-2,-4.203518E-2,-2.6624089E-3,-0E0,2.5802644E-3,-4.638756E-3,4.485436E-2,-9.276933E-3,-2.0196473E-3,-1.6897317E-2,4.892569E-3,-0E0],"categories":[],"categories_nodes":[],"categories_segments":[],"categories_sizes":[],"default_left":[0,0,0,0,0,0,0,0,0,0,0,0,0,0,0,0,0],"id":57,"left_children":[1,3,5,7,9,11,13,-1,-1,-1,-1,15,-1,-1,-1,-1,-1],"loss_changes":[1.9473255E-1,1.9182627E-1,2.181727E-1,5.0527453E-3,3.803198E-2,1.3834032E-1,1.0235354E-2,0E0,0E0,0E0,0E0,4.8580736E-2,0E0,0E0,0E0,0E0,0E0],"parents":[2147483647,0,0,1,1,2,2,3,3,4,4,5,5,6,6,11,11],"right_children":[2,4,6,8,10,12,14,-1,-1,-1,-1,16,-1,-1,-1,-1,-1],"split_conditions":[1E0,1E0,1E0,1E0,1E0,1E0,1E0,-2.6624089E-3,-0E0,2.5802644E-3,-4.638756E-3,1E0,-9.276933E-3,-2.0196473E-3,-1.6897317E-2,4.892569E-3,-0E0],"split_indices":[5,1,1,3,4,4,3,0,0,0,0,3,0,0,0,0,0],"split_type":[0,0,0,0,0,0,0,0,0,0,0,0,0,0,0,0,0],"sum_hessian":[7.5058264E2,5.52231E2,1.9835162E2,4.461236E2,1.0610744E2,1.6030887E2,3.804276E1,4.3117294E2,1.4950675E1,1.0370473E2,2.4027073E0,1.5578314E2,4.5257206E0,3.6808224E1,1.2345366E0,1.5107059E2,4.7125597E0],"tree_param":{"num_deleted":"0","num_feature":"6","num_nodes":"17","size_leaf_vector":"1"}},{"base_weights":[-5.8530024E-3,3.776057E-2,-3.7364118E-2,5.8892634E-2,-1.0720828E-2,-9.718634E-2,-1.0117549E-2,4.1441534E-2,1.2062926E-1,-1.1196989E-2,8.8118725E-2,-5.3037E-2,-2.5243735E-2,1.2681493E-1,-3.4471333E-2,-3.676857E-3,5.5494937E-3,2.4437979E-2,-0E0,1.103393E-2,-5.713323E-3,4.843426E-4,-2.093665E-2,1.5685499E-2,-0E0,-7.2989142E-3,1.1124205E-3],"categories":[],"categories_nodes":[],"categories_segments":[],"categories_sizes":[],"default_left":[0,0,0,0,0,0,0,0,0,0,0,0,0,0,0,0,0,0,0,0,0,0,0,0,0,0,0],"id":58,"left_children":[1,3,5,7,9,11,13,15,17,-1,19,21,-1,23,25,-1,-1,-1,-1,-1,-1,-1,-1,-1,-1,-1,-1],"loss_changes":[1.0230112E0,3.3791324E-1,6.605795E-1,1.51245E-1,8.8706756E-1,7.348908E-1,9.864633E-1,2.0874056E-1,7.3779476E-1,0E0,1.6786212E-1,1.0635145E0,0E0,1.7183477E-1,4.9832278E-1,0E0,0E0,0E0,0E0,0E0,0E0,0E0,0E0,0E0,0E0,0E0,0E0],"parents":[2147483647,0,0,1,1,2,2,3,3,4,4,5,5,6,6,7,7,8,8,10,10,11,11,13,13,14,14],"right_children":[2,4,6,8,10,12,14,16,18,-1,20,22,-1,24,26,-1,-1,-1,-1,-1,-1,-1,-1,-1,-1,-1,-1],"split_conditions":[-2.5892025E-1,1E0,3.2480198E-1,1E0,-8.426425E-1,1E0,5.1937604E-1,-1.4263648E0,-8.426425E-1,-1.1196989E-2,1E0,1.302279E-1,-2.5243735E-2,1E0,1.2976724E0,-3.676857E-3,5.5494937E-3,2.4437979E-2,-0E0,1.103393E-2,-5.713323E-3,4.843426E-4,-2.093665E-2,1.5685499E-2,-0E0,-7.2989142E-3,1.1124205E-3],"split_indices":[0,5,0,1,0,1,0,0,0,0,3,0,0,1,0,0,0,0,0,0,0,0,0,0,0,0,0],"split_type":[0,0,0,0,0,0,0,0,0,0,0,0,0,0,0,0,0,0,0,0,0,0,0,0,0,0,0],"sum_hessian":[7.42498E2,3.0470264E2,4.3779535E2,2.192392E2,8.5463455E1,1.304541E2,3.0734125E2,1.7854114E2,4.0698063E1,4.465041E1,4.081304E1,1.05122284E2,2.5331827E1,4.2672333E1,2.646689E2,2.1529583E1,1.5701155E2,2.1513855E1,1.9184208E1,3.859192E1,2.2211208E0,7.509082E1,3.003146E1,3.453051E1,8.141823E0,1.4908844E2,1.15580475E2],"tree_param":{"num_deleted":"0","num_feature":"6","num_nodes":"27","size_leaf_vector":"1"}},{"base_weights":[7.292816E-3,3.8376718E-4,1.4256656E-1,-1.7250957E-3,8.667892E-2,8.529166E-3,3.2975224E-1,1.4877102E-3,-1.860799E-2,1.5804378E-2,-2.2764434E-5,5.3559285E-2,-0E0,1.5077101E-3,-3.312502E-3,-6.2118787E-3,6.692499E-3],"categories":[],"categories_nodes":[],"categories_segments":[],"categories_sizes":[],"default_left":[0,0,0,0,0,0,0,0,0,0,0,0,0,0,0,0,0],"id":59,"left_children":[1,3,5,7,9,-1,11,13,15,-1,-1,-1,-1,-1,-1,-1,-1],"loss_changes":[6.3493806E-1,1.7432545E-1,1.20416105E-1,4.6651408E-2,2.2121145E-1,0E0,5.387964E-1,2.5751302E-1,5.121593E-1,0E0,0E0,0E0,0E0,0E0,0E0,0E0,0E0],"parents":[2147483647,0,0,1,1,2,2,3,3,4,4,6,6,7,7,8,8],"right_children":[2,4,6,8,10,-1,12,14,16,-1,-1,-1,-1,-1,-1,-1,-1],"split_conditions":[1E0,1E0,1E0,1E0,1E0,8.529166E-3,1E0,1E0,1E0,1.5804378E-2,-2.2764434E-5,5.3559285E-2,-0E0,1.5077101E-3,-3.312502E-3,-6.2118787E-3,6.692499E-3],"split_indices":[4,2,1,1,5,0,5,5,5,0,0,0,0,0,0,0,0],"split_type":[0,0,0,0,0,0,0,0,0,0,0,0,0,0,0,0,0],"sum_hessian":[7.548936E2,7.22682E2,3.2211628E1,7.007433E2,2.1938677E1,2.7824663E1,4.3869667E0,5.645969E2,1.3614638E2,1.4756155E1,7.182522E0,2.9202313E0,1.4667354E0,4.162011E2,1.483958E2,9.429684E1,4.1849545E1],"tree_param":{"num_deleted":"0","num_feature":"6","num_nodes":"17","size_leaf_vector":"1"}},{"base_weights":[4.833457E-3,-1.6837474E-2,4.511938E-2,-7.2084507E-3,-1.0114833E-2,9.582555E-2,-1.6705533E-2,-1.3138495E-2,1.1773153E-1,3.309701E-2,2.3798084E-2,-8.816111E-2,8.472046E-2,1.6182835E-3,-3.194629E-3,-3.7694775E-2,2.8283909E-2,-5.9528598E-3,1.545122E-2,-1.0656625E-2,7.6716132E-3,1.1259455E-2,-2.4381286E-2],"categories":[],"categories_nodes":[],"categories_segments":[],"categories_sizes":[],"default_left":[0,0,0,0,0,0,0,0,0,0,0,0,0,0,0,0,0,0,0,0,0,0,0],"id":60,"left_children":[1,3,5,7,-1,9,11,13,15,17,-1,19,21,-1,-1,-1,-1,-1,-1,-1,-1,-1,-1],"loss_changes":[6.8214786E-1,3.4257823E-1,9.0535885E-1,2.7956483E-1,0E0,1.2480719E0,8.834081E-1,2.4572226E-1,1.405686E0,1.3148139E0,0E0,2.48115E-1,3.9659244E-1,0E0,0E0,0E0,0E0,0E0,0E0,0E0,0E0,0E0,0E0],"parents":[2147483647,0,0,1,1,2,2,3,3,5,5,6,6,7,7,8,8,9,9,11,11,12,12],"right_children":[2,4,6,8,-1,10,12,14,16,18,-1,20,22,-1,-1,-1,-1,-1,-1,-1,-1,-1,-1],"split_conditions":[5.1937604E-1,3.2480198E-1,1.2976724E0,1E0,-1.0114833E-2,1E0,1.6868205E0,-8.426425E-1,-1.0372165E0,9.085242E-1,2.3798084E-2,1E0,1E0,1.6182835E-3,-3.194629E-3,-3.7694775E-2,2.8283909E-2,-5.9528598E-3,1.545122E-2,-1.0656625E-2,7.6716132E-3,1.1259455E-2,-2.4381286E-2],"split_indices":[0,0,0,3,0,5,0,0,0,0,0,3,3,0,0,0,0,0,0,0,0,0,0],"split_type":[0,0,0,0,0,0,0,0,0,0,0,0,0,0,0,0,0,0,0,0,0,0,0],"sum_hessian":[7.6328595E2,4.886163E2,2.7466968E2,4.4482895E2,4.3787346E1,1.5504541E2,1.1962428E2,4.2934753E2,1.5481422E1,1.1087149E2,4.4173916E1,7.314994E1,4.6474342E1,1.5744531E2,2.7190222E2,2.7952356E0,1.2686187E1,6.084527E1,5.0026222E1,6.885043E1,4.2995076E0,4.4848415E1,1.6259239E0],"tree_param":{"num_deleted":"0","num_feature":"6","num_nodes":"23","size_leaf_vector":"1"}},{"base_weights":[3.1140564E-2,6.283975E-2,-3.5210338E-3,7.001694E-2,-1.06023386E-1,-1.9256301E-2,2.1937633E-2,-2.6622849E-2,8.297952E-2,-0E0,-2.54357E-1,-2.7044332E-2,1.3487051E-1,5.9000244E-3,1.732623E-2,-3.9511855E-4,-1.8902725E-2,8.70946E-3,-0E0,-3.0072898E-2,-0E0,-8.0987776E-4,-6.2038237E-3,-0E0,2.0176709E-2,4.0097716E-3,-4.5472155E-3],"categories":[],"categories_nodes":[],"categories_segments":[],"categories_sizes":[],"default_left":[0,0,0,0,0,0,0,0,0,0,0,0,0,0,0,0,0,0,0,0,0,0,0,0,0,0,0],"id":61,"left_children":[1,3,5,7,9,11,13,15,17,-1,19,21,23,25,-1,-1,-1,-1,-1,-1,-1,-1,-1,-1,-1,-1,-1],"loss_changes":[8.602677E-1,4.770378E-1,1.4106344E-1,5.1815903E-1,2.738021E-1,2.278673E-1,2.0963268E-1,5.831389E-2,1.5036869E-1,0E0,2.242425E-2,1.1325908E-1,1.17169544E-1,2.0271601E-1,0E0,0E0,0E0,0E0,0E0,0E0,0E0,0E0,0E0,0E0,0E0,0E0,0E0],"parents":[2147483647,0,0,1,1,2,2,3,3,4,4,5,5,6,6,7,7,8,8,10,10,11,11,12,12,13,13],"right_children":[2,4,6,8,10,12,14,16,18,-1,20,22,24,26,-1,-1,-1,-1,-1,-1,-1,-1,-1,-1,-1,-1,-1],"split_conditions":[1.302279E-1,1E0,1.2976724E0,-1.4263648E0,-6.480684E-1,1E0,1E0,1E0,1E0,-0E0,-2.5892025E-1,9.085242E-1,3.2480198E-1,1.6868205E0,1.732623E-2,-3.9511855E-4,-1.8902725E-2,8.70946E-3,-0E0,-3.0072898E-2,-0E0,-8.0987776E-4,-6.2038237E-3,-0E0,2.0176709E-2,4.0097716E-3,-4.5472155E-3],"split_indices":[0,4,0,0,0,2,4,2,3,0,0,0,0,0,0,0,0,0,0,0,0,0,0,0,0,0,0],"split_type":[0,0,0,0,0,0,0,0,0,0,0,0,0,0,0,0,0,0,0,0,0,0,0,0,0,0,0],"sum_hessian":[7.547602E2,4.013367E2,3.5342346E2,3.883759E2,1.2960815E1,2.3071097E2,1.22712494E2,4.1246315E1,3.4712958E2,7.3031373E0,5.6576777E0,2.234868E2,7.2241774E0,1.1488044E2,7.832053E0,3.9794117E1,1.4521977E0,3.348329E2,1.2296694E1,4.0107226E0,1.6469554E0,1.5505844E2,6.842836E1,1.6712899E0,5.5528874E0,7.494382E1,3.9936623E1],"tree_param":{"num_deleted":"0","num_feature":"6","num_nodes":"27","size_leaf_vector":"1"}},{"base_weights":[5.1024286E-3,-0E0,1.2818572E-1,-9.956365E-3,4.7802746E-2,1.6832627E-1,-5.0100186E-3,1.9062018E-2,-2.6529936E-2,-1.0658322E-2,2.2623616E-1,1.01963304E-1,3.3165447E-2,-3.5280117E-4,8.520073E-3,-0E0,-9.340426E-3,9.124172E-4,-5.826087E-3,2.3834601E-2,-0E0,1.4368265E-2,-0E0],"categories":[],"categories_nodes":[],"categories_segments":[],"categories_sizes":[],"default_left":[0,0,0,0,0,0,0,0,0,0,0,0,0,0,0,0,0,0,0,0,0,0,0],"id":62,"left_children":[1,3,5,7,9,11,-1,13,15,17,19,21,-1,-1,-1,-1,-1,-1,-1,-1,-1,-1,-1],"loss_changes":[5.285194E-1,3.2948518E-1,3.063141E-1,2.964122E-1,1.3393788E0,7.1843505E-2,0E0,3.5557285E-1,6.604458E-1,1.075921E-1,9.7967386E-2,1.3212535E-1,0E0,0E0,0E0,0E0,0E0,0E0,0E0,0E0,0E0,0E0,0E0],"parents":[2147483647,0,0,1,1,2,2,3,3,4,4,5,5,7,7,8,8,9,9,10,10,11,11],"right_children":[2,4,6,8,10,12,-1,14,16,18,20,22,-1,-1,-1,-1,-1,-1,-1,-1,-1,-1,-1],"split_conditions":[1E0,1.2976724E0,1.6868205E0,-6.480684E-1,1E0,1.2976724E0,-5.0100186E-3,1E0,1E0,1.6868205E0,1E0,9.085242E-1,3.3165447E-2,-3.5280117E-4,8.520073E-3,-0E0,-9.340426E-3,9.124172E-4,-5.826087E-3,2.3834601E-2,-0E0,1.4368265E-2,-0E0],"split_indices":[4,0,0,0,5,0,0,5,5,0,2,0,0,0,0,0,0,0,0,0,0,0,0],"split_type":[0,0,0,0,0,0,0,0,0,0,0,0,0,0,0,0,0,0,0,0,0,0,0],"sum_hessian":[7.557035E2,7.233397E2,3.2363804E1,6.065053E2,1.1683439E2,2.8750957E1,3.6128466E0,2.0945517E2,3.9705014E2,8.6599464E1,3.0234928E1,2.3775986E1,4.974973E0,1.511991E2,5.8256073E1,2.9023605E2,1.06814095E2,5.4327095E1,3.2272366E1,2.8866114E1,1.3688152E0,1.787696E1,5.8990245E0],"tree_param":{"num_deleted":"0","num_feature":"6",